<?xml version="1.0" encoding="UTF-8"?>
<ensemble>
	<tree id="1" weight="0.1">
		<split>
			<feature> 15 </feature>
			<threshold> 0.0 </threshold>
			<split pos="left">
				<output> 0.0 </output>
			</split>
			<split pos="right">
				<feature> 21 </feature>
				<threshold> 0.39453125 </threshold>
				<split pos="left">
					<feature> 58 </feature>
					<threshold> 0.8611659 </threshold>
					<split pos="left">
						<feature> 27 </feature>
						<threshold> 0.7673544 </threshold>
						<split pos="left">
							<feature> 43 </feature>
							<threshold> 0.19725843 </threshold>
							<split pos="left">
								<output> 4.02439 </output>
							</split>
							<split pos="right">
								<feature> 65 </feature>
								<threshold> 0.6171875 </threshold>
								<split pos="left">
									<output> 3.483871 </output>
								</split>
								<split pos="right">
									<output> 2.3090909 </output>
								</split>
							</split>
						</split>
						<split pos="right">
							<output> 7.888889 </output>
						</split>
					</split>
					<split pos="right">
						<feature> 22 </feature>
						<threshold> 0.9056522 </threshold>
						<split pos="left">
							<feature> 60 </feature>
							<threshold> 0.039053753 </threshold>
							<split pos="left">
								<feature> 62 </feature>
								<threshold> 0.51171875 </threshold>
								<split pos="left">
									<feature> 58 </feature>
									<threshold> 0.92889106 </threshold>
									<split pos="left">
										<feature> 65 </feature>
										<threshold> 0.6015625 </threshold>
										<split pos="left">
											<feature> 59 </feature>
											<threshold> 0.1764706 </threshold>
											<split pos="left">
												<output> 2.0 </output>
											</split>
											<split pos="right">
												<feature> 63 </feature>
												<threshold> 0.08984375 </threshold>
												<split pos="left">
													<output> 1.8888888 </output>
												</split>
												<split pos="right">
													<output> 4.478261 </output>
												</split>
											</split>
										</split>
										<split pos="right">
											<output> 2.3247864 </output>
										</split>
									</split>
									<split pos="right">
										<feature> 37 </feature>
										<threshold> 0.10516203 </threshold>
										<split pos="left">
											<feature> 61 </feature>
											<threshold> 0.02509065 </threshold>
											<split pos="left">
												<output> 2.1774194 </output>
											</split>
											<split pos="right">
												<feature> 61 </feature>
												<threshold> 0.027778557 </threshold>
												<split pos="left">
													<output> 7.0 </output>
												</split>
												<split pos="right">
													<output> 2.1 </output>
												</split>
											</split>
										</split>
										<split pos="right">
											<feature> 30 </feature>
											<threshold> 0.41796875 </threshold>
											<split pos="left">
												<output> 2.2592592 </output>
											</split>
											<split pos="right">
												<feature> 28 </feature>
												<threshold> 0.16833451 </threshold>
												<split pos="left">
													<feature> 43 </feature>
													<threshold> 0.19864027 </threshold>
													<split pos="left">
														<output> 1.7205882 </output>
													</split>
													<split pos="right">
														<feature> 58 </feature>
														<threshold> 0.98645747 </threshold>
														<split pos="left">
															<feature> 64 </feature>
															<threshold> 0.0 </threshold>
															<split pos="left">
																<feature> 49 </feature>
																<threshold> 0.022520857 </threshold>
																<split pos="left">
																	<output> 2.2818182 </output>
																</split>
																<split pos="right">
																	<feature> 3 </feature>
																	<threshold> 0.5 </threshold>
																	<split pos="left">
																		<feature> 45 </feature>
																		<threshold> 0.9323958 </threshold>
																		<split pos="left">
																			<output> 2.5833333 </output>
																		</split>
																		<split pos="right">
																			<output> 6.6363635 </output>
																		</split>
																	</split>
																	<split pos="right">
																		<output> 1.3 </output>
																	</split>
																</split>
															</split>
															<split pos="right">
																<output> 1.8760331 </output>
															</split>
														</split>
														<split pos="right">
															<output> 1.8235294 </output>
														</split>
													</split>
												</split>
												<split pos="right">
													<output> 1.3285714 </output>
												</split>
											</split>
										</split>
									</split>
								</split>
								<split pos="right">
									<feature> 37 </feature>
									<threshold> 0.10516203 </threshold>
									<split pos="left">
										<output> 2.4333334 </output>
									</split>
									<split pos="right">
										<feature> 30 </feature>
										<threshold> 0.97265625 </threshold>
										<split pos="left">
											<output> 2.1858406 </output>
										</split>
										<split pos="right">
											<feature> 62 </feature>
											<threshold> 0.6953125 </threshold>
											<split pos="left">
												<output> 1.3670412 </output>
											</split>
											<split pos="right">
												<output> 1.7468355 </output>
											</split>
										</split>
									</split>
								</split>
							</split>
							<split pos="right">
								<feature> 30 </feature>
								<threshold> 0.5546875 </threshold>
								<split pos="left">
									<output> 2.304762 </output>
								</split>
								<split pos="right">
									<feature> 41 </feature>
									<threshold> 0.55078125 </threshold>
									<split pos="left">
										<feature> 58 </feature>
										<threshold> 0.9695262 </threshold>
										<split pos="left">
											<output> 1.9193548 </output>
										</split>
										<split pos="right">
											<output> 1.5149051 </output>
										</split>
									</split>
									<split pos="right">
										<output> 2.7272727 </output>
									</split>
								</split>
							</split>
						</split>
						<split pos="right">
							<output> 4.1666665 </output>
						</split>
					</split>
				</split>
				<split pos="right">
					<feature> 7 </feature>
					<threshold> 0.0 </threshold>
					<split pos="left">
						<output> 0.0 </output>
					</split>
					<split pos="right">
						<feature> 33 </feature>
						<threshold> 0.0 </threshold>
						<split pos="left">
							<output> 0.0 </output>
						</split>
						<split pos="right">
							<feature> 4 </feature>
							<threshold> 0.045801528 </threshold>
							<split pos="left">
								<feature> 17 </feature>
								<threshold> 0.88421583 </threshold>
								<split pos="left">
									<feature> 66 </feature>
									<threshold> 0.01171875 </threshold>
									<split pos="left">
										<feature> 49 </feature>
										<threshold> 6.36995E-4 </threshold>
										<split pos="left">
											<output> 3.0 </output>
										</split>
										<split pos="right">
											<feature> 30 </feature>
											<threshold> 0.421875 </threshold>
											<split pos="left">
												<feature> 30 </feature>
												<threshold> 0.3984375 </threshold>
												<split pos="left">
													<feature> 20 </feature>
													<threshold> 0.87366015 </threshold>
													<split pos="left">
														<output> 2.0074906 </output>
													</split>
													<split pos="right">
														<feature> 64 </feature>
														<threshold> 0.05078125 </threshold>
														<split pos="left">
															<feature> 7 </feature>
															<threshold> 0.0234375 </threshold>
															<split pos="left">
																<feature> 53 </feature>
																<threshold> 0.44931418 </threshold>
																<split pos="left">
																	<output> 1.5 </output>
																</split>
																<split pos="right">
																	<output> 1.8456591 </output>
																</split>
															</split>
															<split pos="right">
																<output> 1.4793389 </output>
															</split>
														</split>
														<split pos="right">
															<output> 1.9692308 </output>
														</split>
													</split>
												</split>
												<split pos="right">
													<feature> 56 </feature>
													<threshold> 0.375 </threshold>
													<split pos="left">
														<feature> 58 </feature>
														<threshold> 0.69862545 </threshold>
														<split pos="left">
															<feature> 46 </feature>
															<threshold> 0.029107936 </threshold>
															<split pos="left">
																<feature> 45 </feature>
																<threshold> 0.95942765 </threshold>
																<split pos="left">
																	<feature> 17 </feature>
																	<threshold> 0.5403645 </threshold>
																	<split pos="left">
																		<output> 2.159091 </output>
																	</split>
																	<split pos="right">
																		<feature> 29 </feature>
																		<threshold> 0.0078125 </threshold>
																		<split pos="left">
																			<output> 1.3387097 </output>
																		</split>
																		<split pos="right">
																			<feature> 46 </feature>
																			<threshold> 0.011803641 </threshold>
																			<split pos="left">
																				<output> 1.3157895 </output>
																			</split>
																			<split pos="right">
																				<feature> 43 </feature>
																				<threshold> 0.19449474 </threshold>
																				<split pos="left">
																					<output> 2.2666667 </output>
																				</split>
																				<split pos="right">
																					<feature> 36 </feature>
																					<threshold> 0.16368698 </threshold>
																					<split pos="left">
																						<output> 1.9140625 </output>
																					</split>
																					<split pos="right">
																						<feature> 61 </feature>
																						<threshold> 0.07884882 </threshold>
																						<split pos="left">
																							<output> 1.5996016 </output>
																						</split>
																						<split pos="right">
																							<output> 2.090909 </output>
																						</split>
																					</split>
																				</split>
																			</split>
																		</split>
																	</split>
																</split>
																<split pos="right">
																	<output> 2.7272727 </output>
																</split>
															</split>
															<split pos="right">
																<output> 2.118644 </output>
															</split>
														</split>
														<split pos="right">
															<feature> 68 </feature>
															<threshold> 0.26157415 </threshold>
															<split pos="left">
																<feature> 21 </feature>
																<threshold> 0.82421875 </threshold>
																<split pos="left">
																	<output> 1.4226415 </output>
																</split>
																<split pos="right">
																	<output> 1.6470588 </output>
																</split>
															</split>
															<split pos="right">
																<output> 3.4444444 </output>
															</split>
														</split>
													</split>
													<split pos="right">
														<feature> 63 </feature>
														<threshold> 0.17578125 </threshold>
														<split pos="left">
															<feature> 17 </feature>
															<threshold> 0.8631637 </threshold>
															<split pos="left">
																<feature> 57 </feature>
																<threshold> 0.8671875 </threshold>
																<split pos="left">
																	<output> 2.5652175 </output>
																</split>
																<split pos="right">
																	<feature> 28 </feature>
																	<threshold> 0.6347604 </threshold>
																	<split pos="left">
																		<output> 1.6587538 </output>
																	</split>
																	<split pos="right">
																		<feature> 47 </feature>
																		<threshold> 0.017947301 </threshold>
																		<split pos="left">
																			<output> 4.8 </output>
																		</split>
																		<split pos="right">
																			<output> 1.9733334 </output>
																		</split>
																	</split>
																</split>
															</split>
															<split pos="right">
																<output> 6.0 </output>
															</split>
														</split>
														<split pos="right">
															<output> 3.75 </output>
														</split>
													</split>
												</split>
											</split>
											<split pos="right">
												<feature> 21 </feature>
												<threshold> 0.73828125 </threshold>
												<split pos="left">
													<feature> 58 </feature>
													<threshold> 0.86455214 </threshold>
													<split pos="left">
														<feature> 32 </feature>
														<threshold> 0.51171875 </threshold>
														<split pos="left">
															<feature> 68 </feature>
															<threshold> 0.116255105 </threshold>
															<split pos="left">
																<feature> 43 </feature>
																<threshold> 0.20209488 </threshold>
																<split pos="left">
																	<output> 1.6914498 </output>
																</split>
																<split pos="right">
																	<output> 1.3055556 </output>
																</split>
															</split>
															<split pos="right">
																<output> 2.2 </output>
															</split>
														</split>
														<split pos="right">
															<feature> 38 </feature>
															<threshold> 0.85223097 </threshold>
															<split pos="left">
																<output> 3.2857144 </output>
															</split>
															<split pos="right">
																<output> 2.109589 </output>
															</split>
														</split>
													</split>
													<split pos="right">
														<feature> 12 </feature>
														<threshold> 0.7734375 </threshold>
														<split pos="left">
															<feature> 13 </feature>
															<threshold> 6.2676275E-4 </threshold>
															<split pos="left">
																<feature> 35 </feature>
																<threshold> 0.16796875 </threshold>
																<split pos="left">
																	<feature> 57 </feature>
																	<threshold> 0.98046875 </threshold>
																	<split pos="left">
																		<feature> 62 </feature>
																		<threshold> 0.22265625 </threshold>
																		<split pos="left">
																			<output> 4.0 </output>
																		</split>
																		<split pos="right">
																			<feature> 54 </feature>
																			<threshold> 0.019111235 </threshold>
																			<split pos="left">
																				<output> 1.540146 </output>
																			</split>
																			<split pos="right">
																				<output> 1.3529412 </output>
																			</split>
																		</split>
																	</split>
																	<split pos="right">
																		<output> 1.7586207 </output>
																	</split>
																</split>
																<split pos="right">
																	<output> 1.9294118 </output>
																</split>
															</split>
															<split pos="right">
																<output> 1.9418604 </output>
															</split>
														</split>
														<split pos="right">
															<output> 4.0 </output>
														</split>
													</split>
												</split>
												<split pos="right">
													<feature> 58 </feature>
													<threshold> 0.627514 </threshold>
													<split pos="left">
														<output> 1.7307693 </output>
													</split>
													<split pos="right">
														<feature> 67 </feature>
														<threshold> 0.00783213 </threshold>
														<split pos="left">
															<output> 1.5813397 </output>
														</split>
														<split pos="right">
															<output> 1.3187661 </output>
														</split>
													</split>
												</split>
											</split>
										</split>
									</split>
									<split pos="right">
										<feature> 28 </feature>
										<threshold> 0.5155238 </threshold>
										<split pos="left">
											<output> 6.0 </output>
										</split>
										<split pos="right">
											<feature> 42 </feature>
											<threshold> 0.022629274 </threshold>
											<split pos="left">
												<output> 5.0 </output>
											</split>
											<split pos="right">
												<feature> 23 </feature>
												<threshold> 0.7252206 </threshold>
												<split pos="left">
													<output> 1.5159236 </output>
												</split>
												<split pos="right">
													<output> 1.2757353 </output>
												</split>
											</split>
										</split>
									</split>
								</split>
								<split pos="right">
									<output> 11.0 </output>
								</split>
							</split>
							<split pos="right">
								<feature> 64 </feature>
								<threshold> 0.10546875 </threshold>
								<split pos="left">
									<feature> 35 </feature>
									<threshold> 0.12890625 </threshold>
									<split pos="left">
										<feature> 41 </feature>
										<threshold> 0.3125 </threshold>
										<split pos="left">
											<feature> 61 </feature>
											<threshold> 0.081536725 </threshold>
											<split pos="left">
												<feature> 42 </feature>
												<threshold> 0.026116239 </threshold>
												<split pos="left">
													<output> 2.4225352 </output>
												</split>
												<split pos="right">
													<feature> 4 </feature>
													<threshold> 0.058524173 </threshold>
													<split pos="left">
														<output> 1.5555556 </output>
													</split>
													<split pos="right">
														<feature> 62 </feature>
														<threshold> 0.6015625 </threshold>
														<split pos="left">
															<feature> 19 </feature>
															<threshold> 0.8984375 </threshold>
															<split pos="left">
																<feature> 53 </feature>
																<threshold> 0.31745923 </threshold>
																<split pos="left">
																	<output> 2.4615386 </output>
																</split>
																<split pos="right">
																	<feature> 25 </feature>
																	<threshold> 0.7218277 </threshold>
																	<split pos="left">
																		<feature> 20 </feature>
																		<threshold> 0.6944329 </threshold>
																		<split pos="left">
																			<output> 1.4444444 </output>
																		</split>
																		<split pos="right">
																			<feature> 49 </feature>
																			<threshold> 0.0073768133 </threshold>
																			<split pos="left">
																				<output> 2.3809524 </output>
																			</split>
																			<split pos="right">
																				<output> 1.8461539 </output>
																			</split>
																		</split>
																	</split>
																	<split pos="right">
																		<output> 1.1363636 </output>
																	</split>
																</split>
															</split>
															<split pos="right">
																<output> 2.4333334 </output>
															</split>
														</split>
														<split pos="right">
															<output> 2.7727273 </output>
														</split>
													</split>
												</split>
											</split>
											<split pos="right">
												<output> 2.8 </output>
											</split>
										</split>
										<split pos="right">
											<output> 3.0 </output>
										</split>
									</split>
									<split pos="right">
										<feature> 21 </feature>
										<threshold> 0.890625 </threshold>
										<split pos="left">
											<feature> 53 </feature>
											<threshold> 0.2670441 </threshold>
											<split pos="left">
												<output> 3.142857 </output>
											</split>
											<split pos="right">
												<feature> 42 </feature>
												<threshold> 0.031695385 </threshold>
												<split pos="left">
													<output> 1.5033113 </output>
												</split>
												<split pos="right">
													<feature> 26 </feature>
													<threshold> 0.69140625 </threshold>
													<split pos="left">
														<output> 1.5744681 </output>
													</split>
													<split pos="right">
														<feature> 52 </feature>
														<threshold> 0.008267007 </threshold>
														<split pos="left">
															<output> 1.8156028 </output>
														</split>
														<split pos="right">
															<output> 2.75 </output>
														</split>
													</split>
												</split>
											</split>
										</split>
										<split pos="right">
											<output> 4.2 </output>
										</split>
									</split>
								</split>
								<split pos="right">
									<feature> 8 </feature>
									<threshold> 0.0546875 </threshold>
									<split pos="left">
										<output> 1.137931 </output>
									</split>
									<split pos="right">
										<feature> 9 </feature>
										<threshold> 0.11328125 </threshold>
										<split pos="left">
											<output> 1.5083799 </output>
										</split>
										<split pos="right">
											<feature> 58 </feature>
											<threshold> 0.60719645 </threshold>
											<split pos="left">
												<feature> 26 </feature>
												<threshold> 0.58984375 </threshold>
												<split pos="left">
													<output> 1.0909091 </output>
												</split>
												<split pos="right">
													<feature> 29 </feature>
													<threshold> 0.06640625 </threshold>
													<split pos="left">
														<feature> 41 </feature>
														<threshold> 0.3046875 </threshold>
														<split pos="left">
															<output> 2.014706 </output>
														</split>
														<split pos="right">
															<output> 2.468085 </output>
														</split>
													</split>
													<split pos="right">
														<output> 1.6779661 </output>
													</split>
												</split>
											</split>
											<split pos="right">
												<output> 1.7102474 </output>
											</split>
										</split>
									</split>
								</split>
							</split>
						</split>
					</split>
				</split>
			</split>
		</split>
	</tree>
</ensemble>
