<?xml version="1.0" encoding="UTF-8"?>
<ensemble>
	<tree id="1" weight="0.1">
		<split>
			<feature> 54 </feature>
			<threshold> 0.01012142 </threshold>
			<split pos="left">
				<feature> 33 </feature>
				<threshold> 0.0 </threshold>
				<split pos="left">
					<output> 0.0 </output>
				</split>
				<split pos="right">
					<feature> 50 </feature>
					<threshold> 0.05078125 </threshold>
					<split pos="left">
						<feature> 28 </feature>
						<threshold> 0.6866395 </threshold>
						<split pos="left">
							<feature> 58 </feature>
							<threshold> 0.43105966 </threshold>
							<split pos="left">
								<output> 6.0 </output>
							</split>
							<split pos="right">
								<feature> 63 </feature>
								<threshold> 0.031250104 </threshold>
								<split pos="left">
									<feature> 22 </feature>
									<threshold> 0.44268435 </threshold>
									<split pos="left">
										<output> 7.0 </output>
									</split>
									<split pos="right">
										<feature> 21 </feature>
										<threshold> 0.0 </threshold>
										<split pos="left">
											<output> 5.0 </output>
										</split>
										<split pos="right">
											<feature> 41 </feature>
											<threshold> 0.30859375 </threshold>
											<split pos="left">
												<feature> 43 </feature>
												<threshold> 0.20010532 </threshold>
												<split pos="left">
													<feature> 28 </feature>
													<threshold> 0.6792163 </threshold>
													<split pos="left">
														<feature> 19 </feature>
														<threshold> 0.72265625 </threshold>
														<split pos="left">
															<output> 1.3684211 </output>
														</split>
														<split pos="right">
															<feature> 18 </feature>
															<threshold> 0.5276211 </threshold>
															<split pos="left">
																<output> 2.5625 </output>
															</split>
															<split pos="right">
																<output> 1.8386075 </output>
															</split>
														</split>
													</split>
													<split pos="right">
														<output> 2.3181818 </output>
													</split>
												</split>
												<split pos="right">
													<output> 1.6703601 </output>
												</split>
											</split>
											<split pos="right">
												<output> 1.5898876 </output>
											</split>
										</split>
									</split>
								</split>
								<split pos="right">
									<feature> 58 </feature>
									<threshold> 0.92536587 </threshold>
									<split pos="left">
										<feature> 37 </feature>
										<threshold> 0.2713858 </threshold>
										<split pos="left">
											<output> 2.4339623 </output>
										</split>
										<split pos="right">
											<output> 9.0 </output>
										</split>
									</split>
									<split pos="right">
										<feature> 65 </feature>
										<threshold> 0.3828125 </threshold>
										<split pos="left">
											<output> 1.4698795 </output>
										</split>
										<split pos="right">
											<feature> 20 </feature>
											<threshold> 0.49962047 </threshold>
											<split pos="left">
												<output> 4.0 </output>
											</split>
											<split pos="right">
												<feature> 17 </feature>
												<threshold> 0.6000122 </threshold>
												<split pos="left">
													<output> 2.0277777 </output>
												</split>
												<split pos="right">
													<output> 1.7436975 </output>
												</split>
											</split>
										</split>
									</split>
								</split>
							</split>
						</split>
						<split pos="right">
							<feature> 14 </feature>
							<threshold> 0.0663221 </threshold>
							<split pos="left">
								<output> 1.4210526 </output>
							</split>
							<split pos="right">
								<feature> 68 </feature>
								<threshold> 0.051235374 </threshold>
								<split pos="left">
									<feature> 61 </feature>
									<threshold> 0.0109870415 </threshold>
									<split pos="left">
										<output> 1.8129033 </output>
									</split>
									<split pos="right">
										<output> 1.563981 </output>
									</split>
								</split>
								<split pos="right">
									<output> 2.2962964 </output>
								</split>
							</split>
						</split>
					</split>
					<split pos="right">
						<output> 4.6666665 </output>
					</split>
				</split>
			</split>
			<split pos="right">
				<feature> 15 </feature>
				<threshold> 0.0 </threshold>
				<split pos="left">
					<output> 0.0 </output>
				</split>
				<split pos="right">
					<feature> 33 </feature>
					<threshold> 0.0 </threshold>
					<split pos="left">
						<output> 0.0 </output>
					</split>
					<split pos="right">
						<feature> 21 </feature>
						<threshold> 0.39453125 </threshold>
						<split pos="left">
							<feature> 52 </feature>
							<threshold> 0.004134398 </threshold>
							<split pos="left">
								<feature> 58 </feature>
								<threshold> 0.88135225 </threshold>
								<split pos="left">
									<feature> 48 </feature>
									<threshold> 0.14765601 </threshold>
									<split pos="left">
										<feature> 17 </feature>
										<threshold> 0.63159037 </threshold>
										<split pos="left">
											<feature> 41 </feature>
											<threshold> 0.1640625 </threshold>
											<split pos="left">
												<output> 1.7 </output>
											</split>
											<split pos="right">
												<feature> 36 </feature>
												<threshold> 0.17398758 </threshold>
												<split pos="left">
													<output> 4.0338984 </output>
												</split>
												<split pos="right">
													<output> 2.6170213 </output>
												</split>
											</split>
										</split>
										<split pos="right">
											<output> 1.8867924 </output>
										</split>
									</split>
									<split pos="right">
										<output> 4.6 </output>
									</split>
								</split>
								<split pos="right">
									<feature> 30 </feature>
									<threshold> 0.9609375 </threshold>
									<split pos="left">
										<output> 2.177725 </output>
									</split>
									<split pos="right">
										<feature> 58 </feature>
										<threshold> 0.9693795 </threshold>
										<split pos="left">
											<feature> 64 </feature>
											<threshold> 0.0 </threshold>
											<split pos="left">
												<feature> 65 </feature>
												<threshold> 0.4375 </threshold>
												<split pos="left">
													<output> 7.2 </output>
												</split>
												<split pos="right">
													<feature> 68 </feature>
													<threshold> 0.15736581 </threshold>
													<split pos="left">
														<feature> 68 </feature>
														<threshold> 0.15004648 </threshold>
														<split pos="left">
															<output> 2.642857 </output>
														</split>
														<split pos="right">
															<output> 7.3333335 </output>
														</split>
													</split>
													<split pos="right">
														<output> 1.9365079 </output>
													</split>
												</split>
											</split>
											<split pos="right">
												<feature> 35 </feature>
												<threshold> 0.08203125 </threshold>
												<split pos="left">
													<output> 4.0 </output>
												</split>
												<split pos="right">
													<feature> 24 </feature>
													<threshold> 0.70947534 </threshold>
													<split pos="left">
														<output> 1.5789474 </output>
													</split>
													<split pos="right">
														<feature> 44 </feature>
														<threshold> 0.03599847 </threshold>
														<split pos="left">
															<output> 2.6875 </output>
														</split>
														<split pos="right">
															<feature> 19 </feature>
															<threshold> 0.44921875 </threshold>
															<split pos="left">
																<output> 3.0 </output>
															</split>
															<split pos="right">
																<output> 1.8285714 </output>
															</split>
														</split>
													</split>
												</split>
											</split>
										</split>
										<split pos="right">
											<feature> 38 </feature>
											<threshold> 0.82332 </threshold>
											<split pos="left">
												<output> 1.8623189 </output>
											</split>
											<split pos="right">
												<feature> 36 </feature>
												<threshold> 0.1314573 </threshold>
												<split pos="left">
													<output> 2.0454545 </output>
												</split>
												<split pos="right">
													<feature> 62 </feature>
													<threshold> 0.5234375 </threshold>
													<split pos="left">
														<feature> 54 </feature>
														<threshold> 0.25131944 </threshold>
														<split pos="left">
															<feature> 57 </feature>
															<threshold> 0.9765625 </threshold>
															<split pos="left">
																<feature> 1 </feature>
																<threshold> 0.39259258 </threshold>
																<split pos="left">
																	<feature> 20 </feature>
																	<threshold> 0.67776704 </threshold>
																	<split pos="left">
																		<output> 1.3720931 </output>
																	</split>
																	<split pos="right">
																		<feature> 41 </feature>
																		<threshold> 0.4296875 </threshold>
																		<split pos="left">
																			<feature> 46 </feature>
																			<threshold> 0.039538648 </threshold>
																			<split pos="left">
																				<feature> 43 </feature>
																				<threshold> 0.2056808 </threshold>
																				<split pos="left">
																					<output> 1.8042814 </output>
																				</split>
																				<split pos="right">
																					<output> 2.1971831 </output>
																				</split>
																			</split>
																			<split pos="right">
																				<output> 1.1428572 </output>
																			</split>
																		</split>
																		<split pos="right">
																			<output> 1.3703704 </output>
																		</split>
																	</split>
																</split>
																<split pos="right">
																	<output> 1.5743589 </output>
																</split>
															</split>
															<split pos="right">
																<output> 1.3255814 </output>
															</split>
														</split>
														<split pos="right">
															<output> 1.173913 </output>
														</split>
													</split>
													<split pos="right">
														<output> 1.2694064 </output>
													</split>
												</split>
											</split>
										</split>
									</split>
								</split>
							</split>
							<split pos="right">
								<output> 3.5625 </output>
							</split>
						</split>
						<split pos="right">
							<feature> 4 </feature>
							<threshold> 0.043256998 </threshold>
							<split pos="left">
								<feature> 59 </feature>
								<threshold> 0.44117647 </threshold>
								<split pos="left">
									<feature> 17 </feature>
									<threshold> 0.88421583 </threshold>
									<split pos="left">
										<feature> 5 </feature>
										<threshold> 0.55078125 </threshold>
										<split pos="left">
											<feature> 58 </feature>
											<threshold> 0.6917551 </threshold>
											<split pos="left">
												<feature> 13 </feature>
												<threshold> 0.0021936698 </threshold>
												<split pos="left">
													<output> 2.9166667 </output>
												</split>
												<split pos="right">
													<feature> 57 </feature>
													<threshold> 0.86328125 </threshold>
													<split pos="left">
														<output> 1.5070423 </output>
													</split>
													<split pos="right">
														<feature> 50 </feature>
														<threshold> 0.0390625 </threshold>
														<split pos="left">
															<feature> 55 </feature>
															<threshold> 0.024314903 </threshold>
															<split pos="left">
																<feature> 29 </feature>
																<threshold> 0.015625 </threshold>
																<split pos="left">
																	<output> 2.4791667 </output>
																</split>
																<split pos="right">
																	<output> 1.8345679 </output>
																</split>
															</split>
															<split pos="right">
																<output> 3.0714285 </output>
															</split>
														</split>
														<split pos="right">
															<feature> 53 </feature>
															<threshold> 0.28587133 </threshold>
															<split pos="left">
																<output> 6.0 </output>
															</split>
															<split pos="right">
																<feature> 57 </feature>
																<threshold> 0.94140625 </threshold>
																<split pos="left">
																	<output> 1.9745224 </output>
																</split>
																<split pos="right">
																	<output> 1.5793103 </output>
																</split>
															</split>
														</split>
													</split>
												</split>
											</split>
											<split pos="right">
												<feature> 46 </feature>
												<threshold> 0.021368489 </threshold>
												<split pos="left">
													<feature> 32 </feature>
													<threshold> 0.94921875 </threshold>
													<split pos="left">
														<feature> 58 </feature>
														<threshold> 0.8847379 </threshold>
														<split pos="left">
															<feature> 21 </feature>
															<threshold> 0.66015625 </threshold>
															<split pos="left">
																<output> 2.2 </output>
															</split>
															<split pos="right">
																<feature> 32 </feature>
																<threshold> 0.81640625 </threshold>
																<split pos="left">
																	<feature> 36 </feature>
																	<threshold> 0.19331953 </threshold>
																	<split pos="left">
																		<feature> 39 </feature>
																		<threshold> 0.1953125 </threshold>
																		<split pos="left">
																			<output> 1.4703833 </output>
																		</split>
																		<split pos="right">
																			<feature> 47 </feature>
																			<threshold> 0.017934348 </threshold>
																			<split pos="left">
																				<output> 2.1515152 </output>
																			</split>
																			<split pos="right">
																				<feature> 68 </feature>
																				<threshold> 0.1793238 </threshold>
																				<split pos="left">
																					<output> 1.6044943 </output>
																				</split>
																				<split pos="right">
																					<output> 2.2608695 </output>
																				</split>
																			</split>
																		</split>
																	</split>
																	<split pos="right">
																		<output> 1.3672316 </output>
																	</split>
																</split>
																<split pos="right">
																	<output> 4.0 </output>
																</split>
															</split>
														</split>
														<split pos="right">
															<output> 1.460803 </output>
														</split>
													</split>
													<split pos="right">
														<output> 6.0 </output>
													</split>
												</split>
												<split pos="right">
													<feature> 67 </feature>
													<threshold> 0.0078125 </threshold>
													<split pos="left">
														<feature> 49 </feature>
														<threshold> 0.006513788 </threshold>
														<split pos="left">
															<output> 2.1885245 </output>
														</split>
														<split pos="right">
															<feature> 17 </feature>
															<threshold> 0.8666724 </threshold>
															<split pos="left">
																<feature> 58 </feature>
																<threshold> 0.75269705 </threshold>
																<split pos="left">
																	<output> 2.4594595 </output>
																</split>
																<split pos="right">
																	<feature> 28 </feature>
																	<threshold> 0.38229078 </threshold>
																	<split pos="left">
																		<output> 2.0378788 </output>
																	</split>
																	<split pos="right">
																		<feature> 13 </feature>
																		<threshold> 0.005640865 </threshold>
																		<split pos="left">
																			<feature> 36 </feature>
																			<threshold> 0.19718592 </threshold>
																			<split pos="left">
																				<feature> 60 </feature>
																				<threshold> 0.015411807 </threshold>
																				<split pos="left">
																					<output> 1.827451 </output>
																				</split>
																				<split pos="right">
																					<output> 1.5986159 </output>
																				</split>
																			</split>
																			<split pos="right">
																				<output> 1.3538462 </output>
																			</split>
																		</split>
																		<split pos="right">
																			<output> 2.4411764 </output>
																		</split>
																	</split>
																</split>
															</split>
															<split pos="right">
																<output> 6.0 </output>
															</split>
														</split>
													</split>
													<split pos="right">
														<output> 1.4666667 </output>
													</split>
												</split>
											</split>
										</split>
										<split pos="right">
											<output> 1.4239482 </output>
										</split>
									</split>
									<split pos="right">
										<output> 6.0 </output>
									</split>
								</split>
								<split pos="right">
									<feature> 63 </feature>
									<threshold> 0.023437606 </threshold>
									<split pos="left">
										<feature> 53 </feature>
										<threshold> 0.26652008 </threshold>
										<split pos="left">
											<output> 4.6666665 </output>
										</split>
										<split pos="right">
											<feature> 58 </feature>
											<threshold> 0.47845852 </threshold>
											<split pos="left">
												<output> 6.0 </output>
											</split>
											<split pos="right">
												<feature> 52 </feature>
												<threshold> 0.03537724 </threshold>
												<split pos="left">
													<feature> 53 </feature>
													<threshold> 0.9399434 </threshold>
													<split pos="left">
														<feature> 52 </feature>
														<threshold> 0.031471886 </threshold>
														<split pos="left">
															<feature> 41 </feature>
															<threshold> 0.37890625 </threshold>
															<split pos="left">
																<output> 1.8424658 </output>
															</split>
															<split pos="right">
																<output> 3.0 </output>
															</split>
														</split>
														<split pos="right">
															<output> 4.0 </output>
														</split>
													</split>
													<split pos="right">
														<output> 5.0 </output>
													</split>
												</split>
												<split pos="right">
													<output> 1.326087 </output>
												</split>
											</split>
										</split>
									</split>
									<split pos="right">
										<output> 2.8076923 </output>
									</split>
								</split>
							</split>
							<split pos="right">
								<feature> 65 </feature>
								<threshold> 0.76953125 </threshold>
								<split pos="left">
									<feature> 40 </feature>
									<threshold> 0.8769573 </threshold>
									<split pos="left">
										<feature> 57 </feature>
										<threshold> 0.9296875 </threshold>
										<split pos="left">
											<output> 2.92 </output>
										</split>
										<split pos="right">
											<feature> 6 </feature>
											<threshold> 0.012468828 </threshold>
											<split pos="left">
												<output> 9.0 </output>
											</split>
											<split pos="right">
												<feature> 31 </feature>
												<threshold> 0.5625002 </threshold>
												<split pos="left">
													<feature> 41 </feature>
													<threshold> 0.33984375 </threshold>
													<split pos="left">
														<feature> 30 </feature>
														<threshold> 0.54296875 </threshold>
														<split pos="left">
															<feature> 49 </feature>
															<threshold> 6.36995E-4 </threshold>
															<split pos="left">
																<output> 4.0 </output>
															</split>
															<split pos="right">
																<feature> 61 </feature>
																<threshold> 0.08632226 </threshold>
																<split pos="left">
																	<output> 1.9626168 </output>
																</split>
																<split pos="right">
																	<output> 3.2222223 </output>
																</split>
															</split>
														</split>
														<split pos="right">
															<output> 2.483871 </output>
														</split>
													</split>
													<split pos="right">
														<output> 4.0 </output>
													</split>
												</split>
												<split pos="right">
													<output> 1.5636364 </output>
												</split>
											</split>
										</split>
									</split>
									<split pos="right">
										<output> 1.5051546 </output>
									</split>
								</split>
								<split pos="right">
									<feature> 39 </feature>
									<threshold> 0.19140625 </threshold>
									<split pos="left">
										<output> 1.6042403 </output>
									</split>
									<split pos="right">
										<feature> 20 </feature>
										<threshold> 0.8087572 </threshold>
										<split pos="left">
											<feature> 58 </feature>
											<threshold> 0.5630999 </threshold>
											<split pos="left">
												<output> 2.3958333 </output>
											</split>
											<split pos="right">
												<feature> 43 </feature>
												<threshold> 0.19373335 </threshold>
												<split pos="left">
													<output> 2.413793 </output>
												</split>
												<split pos="right">
													<output> 1.7670455 </output>
												</split>
											</split>
										</split>
										<split pos="right">
											<output> 1.6852459 </output>
										</split>
									</split>
								</split>
							</split>
						</split>
					</split>
				</split>
			</split>
		</split>
	</tree>
</ensemble>