<?xml version="1.0" encoding="UTF-8"?>
<ensemble>
	<tree id="1" weight="0.1">
		<split>
			<feature> 58 </feature>
			<threshold> 0.5529784 </threshold>
			<split pos="left">
				<feature> 33 </feature>
				<threshold> 0.0 </threshold>
				<split pos="left">
					<output> 0.0 </output>
				</split>
				<split pos="right">
					<feature> 7 </feature>
					<threshold> 0.734375 </threshold>
					<split pos="left">
						<feature> 15 </feature>
						<threshold> 0.0036179696 </threshold>
						<split pos="left">
							<output> 2.6976745 </output>
						</split>
						<split pos="right">
							<feature> 17 </feature>
							<threshold> 0.5087863 </threshold>
							<split pos="left">
								<output> 3.3333333 </output>
							</split>
							<split pos="right">
								<output> 1.8283828 </output>
							</split>
						</split>
					</split>
					<split pos="right">
						<output> 1.484375 </output>
					</split>
				</split>
			</split>
			<split pos="right">
				<feature> 55 </feature>
				<threshold> 0.009369587 </threshold>
				<split pos="left">
					<feature> 33 </feature>
					<threshold> 0.0 </threshold>
					<split pos="left">
						<output> 0.0 </output>
					</split>
					<split pos="right">
						<feature> 17 </feature>
						<threshold> 0.46668234 </threshold>
						<split pos="left">
							<output> 2.375 </output>
						</split>
						<split pos="right">
							<feature> 14 </feature>
							<threshold> 0.0393149 </threshold>
							<split pos="left">
								<output> 2.5454545 </output>
							</split>
							<split pos="right">
								<feature> 3 </feature>
								<threshold> 0.75 </threshold>
								<split pos="left">
									<feature> 22 </feature>
									<threshold> 0.6952488 </threshold>
									<split pos="left">
										<output> 1.3414634 </output>
									</split>
									<split pos="right">
										<feature> 60 </feature>
										<threshold> 0.010020217 </threshold>
										<split pos="left">
											<output> 1.4962406 </output>
										</split>
										<split pos="right">
											<feature> 1 </feature>
											<threshold> 0.7925926 </threshold>
											<split pos="left">
												<feature> 21 </feature>
												<threshold> 0.64176846 </threshold>
												<split pos="left">
													<output> 1.918919 </output>
												</split>
												<split pos="right">
													<output> 1.6232877 </output>
												</split>
											</split>
											<split pos="right">
												<output> 4.0 </output>
											</split>
										</split>
									</split>
								</split>
								<split pos="right">
									<output> 1.925926 </output>
								</split>
							</split>
						</split>
					</split>
				</split>
				<split pos="right">
					<feature> 54 </feature>
					<threshold> 0.017529251 </threshold>
					<split pos="left">
						<feature> 29 </feature>
						<threshold> 0.0 </threshold>
						<split pos="left">
							<feature> 58 </feature>
							<threshold> 0.69518626 </threshold>
							<split pos="left">
								<output> 0.28440368 </output>
							</split>
							<split pos="right">
								<feature> 59 </feature>
								<threshold> 0.5882353 </threshold>
								<split pos="left">
									<feature> 55 </feature>
									<threshold> 0.030594397 </threshold>
									<split pos="left">
										<feature> 28 </feature>
										<threshold> 0.3414637 </threshold>
										<split pos="left">
											<feature> 23 </feature>
											<threshold> 0.62909687 </threshold>
											<split pos="left">
												<output> 1.3157895 </output>
											</split>
											<split pos="right">
												<feature> 21 </feature>
												<threshold> 0.5219201 </threshold>
												<split pos="left">
													<feature> 39 </feature>
													<threshold> 0.0703125 </threshold>
													<split pos="left">
														<output> 2.7692308 </output>
													</split>
													<split pos="right">
														<feature> 25 </feature>
														<threshold> 0.8488199 </threshold>
														<split pos="left">
															<output> 2.4583333 </output>
														</split>
														<split pos="right">
															<output> 1.7980295 </output>
														</split>
													</split>
												</split>
												<split pos="right">
													<output> 2.7692308 </output>
												</split>
											</split>
										</split>
										<split pos="right">
											<output> 1.5402597 </output>
										</split>
									</split>
									<split pos="right">
										<output> 7.0 </output>
									</split>
								</split>
								<split pos="right">
									<output> 2.7368422 </output>
								</split>
							</split>
						</split>
						<split pos="right">
							<feature> 33 </feature>
							<threshold> 0.0 </threshold>
							<split pos="left">
								<output> 0.0 </output>
							</split>
							<split pos="right">
								<feature> 67 </feature>
								<threshold> 0.8828159 </threshold>
								<split pos="left">
									<feature> 22 </feature>
									<threshold> 0.57689685 </threshold>
									<split pos="left">
										<output> 2.8095238 </output>
									</split>
									<split pos="right">
										<feature> 17 </feature>
										<threshold> 0.8982506 </threshold>
										<split pos="left">
											<feature> 58 </feature>
											<threshold> 0.69518626 </threshold>
											<split pos="left">
												<feature> 13 </feature>
												<threshold> 0.013788781 </threshold>
												<split pos="left">
													<output> 2.5277777 </output>
												</split>
												<split pos="right">
													<feature> 11 </feature>
													<threshold> 0.109375 </threshold>
													<split pos="left">
														<feature> 43 </feature>
														<threshold> 0.19293685 </threshold>
														<split pos="left">
															<output> 2.3 </output>
														</split>
														<split pos="right">
															<feature> 6 </feature>
															<threshold> 0.0074812965 </threshold>
															<split pos="left">
																<feature> 11 </feature>
																<threshold> 0.0078125 </threshold>
																<split pos="left">
																	<output> 1.2142857 </output>
																</split>
																<split pos="right">
																	<feature> 40 </feature>
																	<threshold> 0.8940715 </threshold>
																	<split pos="left">
																		<feature> 43 </feature>
																		<threshold> 0.2080703 </threshold>
																		<split pos="left">
																			<output> 1.9612188 </output>
																		</split>
																		<split pos="right">
																			<output> 1.2666667 </output>
																		</split>
																	</split>
																	<split pos="right">
																		<output> 3.3333333 </output>
																	</split>
																</split>
															</split>
															<split pos="right">
																<feature> 20 </feature>
																<threshold> 0.6033502 </threshold>
																<split pos="left">
																	<output> 2.875 </output>
																</split>
																<split pos="right">
																	<feature> 49 </feature>
																	<threshold> 6.36995E-4 </threshold>
																	<split pos="left">
																		<output> 3.6666667 </output>
																	</split>
																	<split pos="right">
																		<feature> 25 </feature>
																		<threshold> 0.6764733 </threshold>
																		<split pos="left">
																			<output> 1.8049383 </output>
																		</split>
																		<split pos="right">
																			<output> 1.5436894 </output>
																		</split>
																	</split>
																</split>
															</split>
														</split>
													</split>
													<split pos="right">
														<output> 1.6633266 </output>
													</split>
												</split>
											</split>
											<split pos="right">
												<feature> 63 </feature>
												<threshold> 0.003906356 </threshold>
												<split pos="left">
													<feature> 49 </feature>
													<threshold> 6.36995E-4 </threshold>
													<split pos="left">
														<output> 6.0 </output>
													</split>
													<split pos="right">
														<feature> 61 </feature>
														<threshold> 0.12398991 </threshold>
														<split pos="left">
															<feature> 51 </feature>
															<threshold> 0.1010101 </threshold>
															<split pos="left">
																<output> 1.7193676 </output>
															</split>
															<split pos="right">
																<feature> 47 </feature>
																<threshold> 0.04469521 </threshold>
																<split pos="left">
																	<feature> 30 </feature>
																	<threshold> 0.546875 </threshold>
																	<split pos="left">
																		<feature> 36 </feature>
																		<threshold> 0.20526482 </threshold>
																		<split pos="left">
																			<feature> 46 </feature>
																			<threshold> 0.032979473 </threshold>
																			<split pos="left">
																				<feature> 12 </feature>
																				<threshold> 0.75390625 </threshold>
																				<split pos="left">
																					<output> 1.9 </output>
																				</split>
																				<split pos="right">
																					<feature> 17 </feature>
																					<threshold> 0.3894919 </threshold>
																					<split pos="left">
																						<output> 3.0 </output>
																					</split>
																					<split pos="right">
																						<feature> 31 </feature>
																						<threshold> 0.105468936 </threshold>
																						<split pos="left">
																							<feature> 57 </feature>
																							<threshold> 0.9296875 </threshold>
																							<split pos="left">
																								<output> 1.88 </output>
																							</split>
																							<split pos="right">
																								<feature> 47 </feature>
																								<threshold> 0.02876814 </threshold>
																								<split pos="left">
																									<output> 1.4355301 </output>
																								</split>
																								<split pos="right">
																									<output> 1.5691057 </output>
																								</split>
																							</split>
																						</split>
																						<split pos="right">
																							<output> 1.0 </output>
																						</split>
																					</split>
																				</split>
																			</split>
																			<split pos="right">
																				<output> 1.1470588 </output>
																			</split>
																		</split>
																		<split pos="right">
																			<output> 1.2040817 </output>
																		</split>
																	</split>
																	<split pos="right">
																		<output> 1.6901408 </output>
																	</split>
																</split>
																<split pos="right">
																	<output> 1.8153846 </output>
																</split>
															</split>
														</split>
														<split pos="right">
															<output> 2.2857144 </output>
														</split>
													</split>
												</split>
												<split pos="right">
													<feature> 30 </feature>
													<threshold> 0.97265625 </threshold>
													<split pos="left">
														<feature> 32 </feature>
														<threshold> 0.796875 </threshold>
														<split pos="left">
															<output> 1.9106383 </output>
														</split>
														<split pos="right">
															<output> 2.4038463 </output>
														</split>
													</split>
													<split pos="right">
														<output> 1.591195 </output>
													</split>
												</split>
											</split>
										</split>
										<split pos="right">
											<output> 6.5 </output>
										</split>
									</split>
								</split>
								<split pos="right">
									<output> 1.2808989 </output>
								</split>
							</split>
						</split>
					</split>
					<split pos="right">
						<feature> 15 </feature>
						<threshold> 0.0 </threshold>
						<split pos="left">
							<output> 0.0 </output>
						</split>
						<split pos="right">
							<feature> 5 </feature>
							<threshold> 0.00390625 </threshold>
							<split pos="left">
								<feature> 62 </feature>
								<threshold> 0.48828125 </threshold>
								<split pos="left">
									<feature> 58 </feature>
									<threshold> 0.979602 </threshold>
									<split pos="left">
										<feature> 28 </feature>
										<threshold> 0.15588577 </threshold>
										<split pos="left">
											<feature> 65 </feature>
											<threshold> 0.4375 </threshold>
											<split pos="left">
												<output> 6.181818 </output>
											</split>
											<split pos="right">
												<feature> 58 </feature>
												<threshold> 0.8543236 </threshold>
												<split pos="left">
													<output> 3.878049 </output>
												</split>
												<split pos="right">
													<feature> 64 </feature>
													<threshold> 0.0 </threshold>
													<split pos="left">
														<feature> 49 </feature>
														<threshold> 0.015082398 </threshold>
														<split pos="left">
															<feature> 23 </feature>
															<threshold> 0.7493886 </threshold>
															<split pos="left">
																<feature> 46 </feature>
																<threshold> 0.025199994 </threshold>
																<split pos="left">
																	<output> 3.1515152 </output>
																</split>
																<split pos="right">
																	<output> 1.9090909 </output>
																</split>
															</split>
															<split pos="right">
																<output> 4.3333335 </output>
															</split>
														</split>
														<split pos="right">
															<output> 2.1976745 </output>
														</split>
													</split>
													<split pos="right">
														<feature> 39 </feature>
														<threshold> 0.1015625 </threshold>
														<split pos="left">
															<output> 3.9 </output>
														</split>
														<split pos="right">
															<output> 1.9859155 </output>
														</split>
													</split>
												</split>
											</split>
										</split>
										<split pos="right">
											<feature> 58 </feature>
											<threshold> 0.7425889 </threshold>
											<split pos="left">
												<output> 0.09090909 </output>
											</split>
											<split pos="right">
												<feature> 58 </feature>
												<threshold> 0.8543236 </threshold>
												<split pos="left">
													<output> 2.8636363 </output>
												</split>
												<split pos="right">
													<output> 1.7961539 </output>
												</split>
											</split>
										</split>
									</split>
									<split pos="right">
										<feature> 58 </feature>
										<threshold> 0.9931456 </threshold>
										<split pos="left">
											<feature> 35 </feature>
											<threshold> 0.2900273 </threshold>
											<split pos="left">
												<feature> 13 </feature>
												<threshold> 0.0 </threshold>
												<split pos="left">
													<output> 1.8327137 </output>
												</split>
												<split pos="right">
													<output> 2.3088236 </output>
												</split>
											</split>
											<split pos="right">
												<output> 5.0 </output>
											</split>
										</split>
										<split pos="right">
											<output> 1.7520661 </output>
										</split>
									</split>
								</split>
								<split pos="right">
									<feature> 52 </feature>
									<threshold> 0.004590694 </threshold>
									<split pos="left">
										<feature> 13 </feature>
										<threshold> 0.0 </threshold>
										<split pos="left">
											<feature> 62 </feature>
											<threshold> 0.73046875 </threshold>
											<split pos="left">
												<feature> 62 </feature>
												<threshold> 0.5234375 </threshold>
												<split pos="left">
													<output> 1.774359 </output>
												</split>
												<split pos="right">
													<output> 1.301676 </output>
												</split>
											</split>
											<split pos="right">
												<feature> 58 </feature>
												<threshold> 0.89495444 </threshold>
												<split pos="left">
													<output> 2.8484848 </output>
												</split>
												<split pos="right">
													<output> 1.6942148 </output>
												</split>
											</split>
										</split>
										<split pos="right">
											<output> 1.910596 </output>
										</split>
									</split>
									<split pos="right">
										<output> 3.5555556 </output>
									</split>
								</split>
							</split>
							<split pos="right">
								<feature> 26 </feature>
								<threshold> 0.8359375 </threshold>
								<split pos="left">
									<feature> 39 </feature>
									<threshold> 0.171875 </threshold>
									<split pos="left">
										<output> 1.5732899 </output>
									</split>
									<split pos="right">
										<feature> 50 </feature>
										<threshold> 0.0390625 </threshold>
										<split pos="left">
											<output> 2.18 </output>
										</split>
										<split pos="right">
											<feature> 41 </feature>
											<threshold> 0.33203125 </threshold>
											<split pos="left">
												<feature> 14 </feature>
												<threshold> 0.03545673 </threshold>
												<split pos="left">
													<output> 3.4444444 </output>
												</split>
												<split pos="right">
													<feature> 45 </feature>
													<threshold> 0.9577284 </threshold>
													<split pos="left">
														<feature> 26 </feature>
														<threshold> 0.30859375 </threshold>
														<split pos="left">
															<output> 3.0 </output>
														</split>
														<split pos="right">
															<feature> 54 </feature>
															<threshold> 0.07540029 </threshold>
															<split pos="left">
																<feature> 25 </feature>
																<threshold> 0.5525047 </threshold>
																<split pos="left">
																	<output> 2.2777777 </output>
																</split>
																<split pos="right">
																	<feature> 42 </feature>
																	<threshold> 0.08396014 </threshold>
																	<split pos="left">
																		<feature> 40 </feature>
																		<threshold> 0.8832682 </threshold>
																		<split pos="left">
																			<feature> 61 </feature>
																			<threshold> 0.0029154134 </threshold>
																			<split pos="left">
																				<output> 4.0 </output>
																			</split>
																			<split pos="right">
																				<feature> 40 </feature>
																				<threshold> 0.87246484 </threshold>
																				<split pos="left">
																					<feature> 30 </feature>
																					<threshold> 0.765625 </threshold>
																					<split pos="left">
																						<feature> 4 </feature>
																						<threshold> 0.010178117 </threshold>
																						<split pos="left">
																							<output> 1.4408603 </output>
																						</split>
																						<split pos="right">
																							<feature> 23 </feature>
																							<threshold> 0.75273 </threshold>
																							<split pos="left">
																								<output> 1.6525 </output>
																							</split>
																							<split pos="right">
																								<output> 1.9555556 </output>
																							</split>
																						</split>
																					</split>
																					<split pos="right">
																						<output> 1.3181819 </output>
																					</split>
																				</split>
																				<split pos="right">
																					<output> 3.5 </output>
																				</split>
																			</split>
																		</split>
																		<split pos="right">
																			<output> 1.1304348 </output>
																		</split>
																	</split>
																	<split pos="right">
																		<output> 3.0 </output>
																	</split>
																</split>
															</split>
															<split pos="right">
																<output> 1.971831 </output>
															</split>
														</split>
													</split>
													<split pos="right">
														<output> 2.3214285 </output>
													</split>
												</split>
											</split>
											<split pos="right">
												<feature> 68 </feature>
												<threshold> 0.102470785 </threshold>
												<split pos="left">
													<output> 1.8068966 </output>
												</split>
												<split pos="right">
													<feature> 35 </feature>
													<threshold> 0.13352816 </threshold>
													<split pos="left">
														<output> 11.0 </output>
													</split>
													<split pos="right">
														<output> 2.487805 </output>
													</split>
												</split>
											</split>
										</split>
									</split>
								</split>
								<split pos="right">
									<feature> 1 </feature>
									<threshold> 0.6888889 </threshold>
									<split pos="left">
										<feature> 15 </feature>
										<threshold> 0.007235939 </threshold>
										<split pos="left">
											<feature> 58 </feature>
											<threshold> 0.7595184 </threshold>
											<split pos="left">
												<output> 2.238806 </output>
											</split>
											<split pos="right">
												<feature> 21 </feature>
												<threshold> 0.518054 </threshold>
												<split pos="left">
													<output> 2.5 </output>
												</split>
												<split pos="right">
													<feature> 52 </feature>
													<threshold> 0.00849426 </threshold>
													<split pos="left">
														<output> 1.6122931 </output>
													</split>
													<split pos="right">
														<output> 3.1666667 </output>
													</split>
												</split>
											</split>
										</split>
										<split pos="right">
											<output> 1.4659091 </output>
										</split>
									</split>
									<split pos="right">
										<output> 2.4 </output>
									</split>
								</split>
							</split>
						</split>
					</split>
				</split>
			</split>
		</split>
	</tree>
</ensemble>
