<?xml version="1.0" encoding="UTF-8"?>
<ensemble>
	<tree id="1" weight="0.1">
		<split>
			<feature> 33 </feature>
			<threshold> 0.0 </threshold>
			<split pos="left">
				<output> 0.0 </output>
			</split>
			<split pos="right">
				<feature> 66 </feature>
				<threshold> 0.03515625 </threshold>
				<split pos="left">
					<feature> 59 </feature>
					<threshold> 0.5294118 </threshold>
					<split pos="left">
						<feature> 27 </feature>
						<threshold> 0.52547336 </threshold>
						<split pos="left">
							<feature> 46 </feature>
							<threshold> 0.018897006 </threshold>
							<split pos="left">
								<feature> 24 </feature>
								<threshold> 0.8007173 </threshold>
								<split pos="left">
									<output> 1.8636364 </output>
								</split>
								<split pos="right">
									<feature> 59 </feature>
									<threshold> 0.32352942 </threshold>
									<split pos="left">
										<feature> 59 </feature>
										<threshold> 0.23529412 </threshold>
										<split pos="left">
											<output> 1.8 </output>
										</split>
										<split pos="right">
											<output> 3.892857 </output>
										</split>
									</split>
									<split pos="right">
										<output> 1.6818181 </output>
									</split>
								</split>
							</split>
							<split pos="right">
								<output> 1.8095238 </output>
							</split>
						</split>
						<split pos="right">
							<feature> 62 </feature>
							<threshold> 0.4993804 </threshold>
							<split pos="left">
								<feature> 32 </feature>
								<threshold> 0.91015625 </threshold>
								<split pos="left">
									<feature> 28 </feature>
									<threshold> 0.49363732 </threshold>
									<split pos="left">
										<feature> 12 </feature>
										<threshold> 0.75390625 </threshold>
										<split pos="left">
											<output> 5.25 </output>
										</split>
										<split pos="right">
											<feature> 13 </feature>
											<threshold> 0.0 </threshold>
											<split pos="left">
												<feature> 58 </feature>
												<threshold> 0.8205308 </threshold>
												<split pos="left">
													<output> 3.4210527 </output>
												</split>
												<split pos="right">
													<feature> 27 </feature>
													<threshold> 0.81781244 </threshold>
													<split pos="left">
														<feature> 23 </feature>
														<threshold> 0.8229002 </threshold>
														<split pos="left">
															<feature> 65 </feature>
															<threshold> 0.38671875 </threshold>
															<split pos="left">
																<output> 1.3913044 </output>
															</split>
															<split pos="right">
																<feature> 58 </feature>
																<threshold> 0.9322773 </threshold>
																<split pos="left">
																	<output> 1.9541985 </output>
																</split>
																<split pos="right">
																	<output> 1.624041 </output>
																</split>
															</split>
														</split>
														<split pos="right">
															<output> 4.0 </output>
														</split>
													</split>
													<split pos="right">
														<output> 3.3333333 </output>
													</split>
												</split>
											</split>
											<split pos="right">
												<feature> 57 </feature>
												<threshold> 0.98046875 </threshold>
												<split pos="left">
													<feature> 54 </feature>
													<threshold> 0.012898651 </threshold>
													<split pos="left">
														<output> 1.6746988 </output>
													</split>
													<split pos="right">
														<output> 2.0622568 </output>
													</split>
												</split>
												<split pos="right">
													<output> 2.321839 </output>
												</split>
											</split>
										</split>
									</split>
									<split pos="right">
										<feature> 58 </feature>
										<threshold> 0.6681491 </threshold>
										<split pos="left">
											<feature> 31 </feature>
											<threshold> 0.019532654 </threshold>
											<split pos="left">
												<feature> 68 </feature>
												<threshold> 0.3293701 </threshold>
												<split pos="left">
													<feature> 8 </feature>
													<threshold> 0.03125 </threshold>
													<split pos="left">
														<feature> 59 </feature>
														<threshold> 0.2647059 </threshold>
														<split pos="left">
															<feature> 22 </feature>
															<threshold> 0.70674443 </threshold>
															<split pos="left">
																<output> 2.9 </output>
															</split>
															<split pos="right">
																<feature> 46 </feature>
																<threshold> 0.0069086035 </threshold>
																<split pos="left">
																	<output> 5.0 </output>
																</split>
																<split pos="right">
																	<feature> 2 </feature>
																	<threshold> 0.0 </threshold>
																	<split pos="left">
																		<output> 1.8744395 </output>
																	</split>
																	<split pos="right">
																		<output> 1.6411765 </output>
																	</split>
																</split>
															</split>
														</split>
														<split pos="right">
															<feature> 15 </feature>
															<threshold> 0.0036179696 </threshold>
															<split pos="left">
																<feature> 24 </feature>
																<threshold> 0.6633714 </threshold>
																<split pos="left">
																	<output> 3.9166667 </output>
																</split>
																<split pos="right">
																	<output> 2.0 </output>
																</split>
															</split>
															<split pos="right">
																<feature> 26 </feature>
																<threshold> 0.640625 </threshold>
																<split pos="left">
																	<output> 3.0 </output>
																</split>
																<split pos="right">
																	<output> 1.9289099 </output>
																</split>
															</split>
														</split>
													</split>
													<split pos="right">
														<feature> 57 </feature>
														<threshold> 0.9921875 </threshold>
														<split pos="left">
															<feature> 9 </feature>
															<threshold> 0.03125 </threshold>
															<split pos="left">
																<output> 1.4873097 </output>
															</split>
															<split pos="right">
																<feature> 68 </feature>
																<threshold> 0.025617687 </threshold>
																<split pos="left">
																	<feature> 25 </feature>
																	<threshold> 0.7762529 </threshold>
																	<split pos="left">
																		<feature> 29 </feature>
																		<threshold> 0.046875 </threshold>
																		<split pos="left">
																			<feature> 4 </feature>
																			<threshold> 0.28244275 </threshold>
																			<split pos="left">
																				<feature> 44 </feature>
																				<threshold> 0.030019216 </threshold>
																				<split pos="left">
																					<output> 3.2222223 </output>
																				</split>
																				<split pos="right">
																					<output> 1.9565217 </output>
																				</split>
																			</split>
																			<split pos="right">
																				<output> 3.142857 </output>
																			</split>
																		</split>
																		<split pos="right">
																			<feature> 53 </feature>
																			<threshold> 0.46604538 </threshold>
																			<split pos="left">
																				<output> 1.9915254 </output>
																			</split>
																			<split pos="right">
																				<feature> 54 </feature>
																				<threshold> 0.0066860677 </threshold>
																				<split pos="left">
																					<output> 3.5 </output>
																				</split>
																				<split pos="right">
																					<feature> 58 </feature>
																					<threshold> 0.5699476 </threshold>
																					<split pos="left">
																						<output> 1.9439253 </output>
																					</split>
																					<split pos="right">
																						<output> 1.6081082 </output>
																					</split>
																				</split>
																			</split>
																		</split>
																	</split>
																	<split pos="right">
																		<output> 2.3275862 </output>
																	</split>
																</split>
																<split pos="right">
																	<output> 1.6596639 </output>
																</split>
															</split>
														</split>
														<split pos="right">
															<output> 1.2624114 </output>
														</split>
													</split>
												</split>
												<split pos="right">
													<output> 4.2 </output>
												</split>
											</split>
											<split pos="right">
												<output> 3.7272727 </output>
											</split>
										</split>
										<split pos="right">
											<feature> 14 </feature>
											<threshold> 0.050889414 </threshold>
											<split pos="left">
												<feature> 9 </feature>
												<threshold> 0.01171875 </threshold>
												<split pos="left">
													<feature> 41 </feature>
													<threshold> 0.47265625 </threshold>
													<split pos="left">
														<feature> 58 </feature>
														<threshold> 0.73248804 </threshold>
														<split pos="left">
															<output> 2.352381 </output>
														</split>
														<split pos="right">
															<feature> 51 </feature>
															<threshold> 0.09090909 </threshold>
															<split pos="left">
																<feature> 30 </feature>
																<threshold> 0.41970748 </threshold>
																<split pos="left">
																	<feature> 58 </feature>
																	<threshold> 0.76296437 </threshold>
																	<split pos="left">
																		<output> 2.5714285 </output>
																	</split>
																	<split pos="right">
																		<feature> 46 </feature>
																		<threshold> 0.011703964 </threshold>
																		<split pos="left">
																			<output> 2.3666666 </output>
																		</split>
																		<split pos="right">
																			<feature> 19 </feature>
																			<threshold> 0.66015625 </threshold>
																			<split pos="left">
																				<output> 2.4 </output>
																			</split>
																			<split pos="right">
																				<feature> 22 </feature>
																				<threshold> 0.70674443 </threshold>
																				<split pos="left">
																					<output> 2.4285715 </output>
																				</split>
																				<split pos="right">
																					<feature> 25 </feature>
																					<threshold> 0.54645747 </threshold>
																					<split pos="left">
																						<output> 3.6666667 </output>
																					</split>
																					<split pos="right">
																						<output> 1.8189415 </output>
																					</split>
																				</split>
																			</split>
																		</split>
																	</split>
																</split>
																<split pos="right">
																	<feature> 23 </feature>
																	<threshold> 0.8262416 </threshold>
																	<split pos="left">
																		<feature> 58 </feature>
																		<threshold> 0.7595781 </threshold>
																		<split pos="left">
																			<output> 2.9 </output>
																		</split>
																		<split pos="right">
																			<output> 1.6005362 </output>
																		</split>
																	</split>
																	<split pos="right">
																		<output> 6.0 </output>
																	</split>
																</split>
															</split>
															<split pos="right">
																<feature> 38 </feature>
																<threshold> 0.8682926 </threshold>
																<split pos="left">
																	<feature> 65 </feature>
																	<threshold> 0.6484375 </threshold>
																	<split pos="left">
																		<output> 1.4391534 </output>
																	</split>
																	<split pos="right">
																		<feature> 49 </feature>
																		<threshold> 0.015616653 </threshold>
																		<split pos="left">
																			<feature> 32 </feature>
																			<threshold> 0.2578125 </threshold>
																			<split pos="left">
																				<feature> 68 </feature>
																				<threshold> 0.01097901 </threshold>
																				<split pos="left">
																					<output> 1.5847458 </output>
																				</split>
																				<split pos="right">
																					<output> 1.9642857 </output>
																				</split>
																			</split>
																			<split pos="right">
																				<output> 2.3142858 </output>
																			</split>
																		</split>
																		<split pos="right">
																			<output> 1.5743244 </output>
																		</split>
																	</split>
																</split>
																<split pos="right">
																	<output> 1.4321609 </output>
																</split>
															</split>
														</split>
													</split>
													<split pos="right">
														<output> 2.8888888 </output>
													</split>
												</split>
												<split pos="right">
													<output> 2.580645 </output>
												</split>
											</split>
											<split pos="right">
												<feature> 13 </feature>
												<threshold> 0.01128173 </threshold>
												<split pos="left">
													<output> 1.2756757 </output>
												</split>
												<split pos="right">
													<feature> 12 </feature>
													<threshold> 0.75390625 </threshold>
													<split pos="left">
														<output> 2.0 </output>
													</split>
													<split pos="right">
														<feature> 57 </feature>
														<threshold> 0.98828125 </threshold>
														<split pos="left">
															<feature> 65 </feature>
															<threshold> 0.7421875 </threshold>
															<split pos="left">
																<output> 1.6556292 </output>
															</split>
															<split pos="right">
																<output> 1.425 </output>
															</split>
														</split>
														<split pos="right">
															<output> 1.721519 </output>
														</split>
													</split>
												</split>
											</split>
										</split>
									</split>
								</split>
								<split pos="right">
									<feature> 61 </feature>
									<threshold> 0.012917767 </threshold>
									<split pos="left">
										<feature> 27 </feature>
										<threshold> 0.81041145 </threshold>
										<split pos="left">
											<feature> 44 </feature>
											<threshold> 0.06931146 </threshold>
											<split pos="left">
												<feature> 46 </feature>
												<threshold> 0.02081515 </threshold>
												<split pos="left">
													<output> 2.0487804 </output>
												</split>
												<split pos="right">
													<output> 2.5074627 </output>
												</split>
											</split>
											<split pos="right">
												<output> 1.4210526 </output>
											</split>
										</split>
										<split pos="right">
											<output> 3.8181818 </output>
										</split>
									</split>
									<split pos="right">
										<feature> 48 </feature>
										<threshold> 0.10458968 </threshold>
										<split pos="left">
											<feature> 58 </feature>
											<threshold> 0.94582236 </threshold>
											<split pos="left">
												<output> 2.2950819 </output>
											</split>
											<split pos="right">
												<feature> 11 </feature>
												<threshold> 0.0 </threshold>
												<split pos="left">
													<output> 1.5507246 </output>
												</split>
												<split pos="right">
													<output> 1.8695652 </output>
												</split>
											</split>
										</split>
										<split pos="right">
											<feature> 22 </feature>
											<threshold> 0.8939362 </threshold>
											<split pos="left">
												<feature> 58 </feature>
												<threshold> 0.9356636 </threshold>
												<split pos="left">
													<output> 2.6164384 </output>
												</split>
												<split pos="right">
													<feature> 47 </feature>
													<threshold> 0.023459118 </threshold>
													<split pos="left">
														<output> 4.0 </output>
													</split>
													<split pos="right">
														<feature> 36 </feature>
														<threshold> 0.23584981 </threshold>
														<split pos="left">
															<feature> 23 </feature>
															<threshold> 0.5856582 </threshold>
															<split pos="left">
																<output> 2.3255813 </output>
															</split>
															<split pos="right">
																<output> 1.8635014 </output>
															</split>
														</split>
														<split pos="right">
															<output> 1.3870968 </output>
														</split>
													</split>
												</split>
											</split>
											<split pos="right">
												<output> 5.5 </output>
											</split>
										</split>
									</split>
								</split>
							</split>
							<split pos="right">
								<feature> 4 </feature>
								<threshold> 0.050890584 </threshold>
								<split pos="left">
									<feature> 30 </feature>
									<threshold> 0.9748886 </threshold>
									<split pos="left">
										<feature> 63 </feature>
										<threshold> 0.0546875 </threshold>
										<split pos="left">
											<feature> 62 </feature>
											<threshold> 0.5368417 </threshold>
											<split pos="left">
												<feature> 20 </feature>
												<threshold> 0.7620104 </threshold>
												<split pos="left">
													<output> 1.7301587 </output>
												</split>
												<split pos="right">
													<feature> 57 </feature>
													<threshold> 0.984375 </threshold>
													<split pos="left">
														<output> 1.4206897 </output>
													</split>
													<split pos="right">
														<output> 1.7710843 </output>
													</split>
												</split>
											</split>
											<split pos="right">
												<feature> 58 </feature>
												<threshold> 0.7291018 </threshold>
												<split pos="left">
													<output> 2.109589 </output>
												</split>
												<split pos="right">
													<feature> 40 </feature>
													<threshold> 0.88791925 </threshold>
													<split pos="left">
														<feature> 40 </feature>
														<threshold> 0.53713685 </threshold>
														<split pos="left">
															<output> 3.0 </output>
														</split>
														<split pos="right">
															<output> 1.5876011 </output>
														</split>
													</split>
													<split pos="right">
														<output> 2.131579 </output>
													</split>
												</split>
											</split>
										</split>
										<split pos="right">
											<output> 2.1594203 </output>
										</split>
									</split>
									<split pos="right">
										<feature> 65 </feature>
										<threshold> 0.578125 </threshold>
										<split pos="left">
											<feature> 58 </feature>
											<threshold> 0.8510071 </threshold>
											<split pos="left">
												<output> 2.5 </output>
											</split>
											<split pos="right">
												<output> 1.3112583 </output>
											</split>
										</split>
										<split pos="right">
											<feature> 37 </feature>
											<threshold> 0.16283153 </threshold>
											<split pos="left">
												<feature> 28 </feature>
												<threshold> 0.28579044 </threshold>
												<split pos="left">
													<output> 1.75 </output>
												</split>
												<split pos="right">
													<output> 1.2760416 </output>
												</split>
											</split>
											<split pos="right">
												<output> 1.9025974 </output>
											</split>
										</split>
									</split>
								</split>
								<split pos="right">
									<feature> 29 </feature>
									<threshold> 0.015625 </threshold>
									<split pos="left">
										<output> 2.2911391 </output>
									</split>
									<split pos="right">
										<feature> 21 </feature>
										<threshold> 0.0 </threshold>
										<split pos="left">
											<output> 1.0 </output>
										</split>
										<split pos="right">
											<feature> 63 </feature>
											<threshold> 0.0078125 </threshold>
											<split pos="left">
												<feature> 52 </feature>
												<threshold> 0.04709331 </threshold>
												<split pos="left">
													<output> 1.7236364 </output>
												</split>
												<split pos="right">
													<output> 2.387097 </output>
												</split>
											</split>
											<split pos="right">
												<output> 2.137931 </output>
											</split>
										</split>
									</split>
								</split>
							</split>
						</split>
					</split>
					<split pos="right">
						<feature> 38 </feature>
						<threshold> 0.7879843 </threshold>
						<split pos="left">
							<output> 9.0 </output>
						</split>
						<split pos="right">
							<feature> 3 </feature>
							<threshold> 0.75 </threshold>
							<split pos="left">
								<feature> 22 </feature>
								<threshold> 0.84809333 </threshold>
								<split pos="left">
									<output> 1.7192982 </output>
								</split>
								<split pos="right">
									<output> 2.40625 </output>
								</split>
							</split>
							<split pos="right">
								<feature> 6 </feature>
								<threshold> 0.0 </threshold>
								<split pos="left">
									<feature> 32 </feature>
									<threshold> 0.03515625 </threshold>
									<split pos="left">
										<output> 10.0 </output>
									</split>
									<split pos="right">
										<output> 4.535714 </output>
									</split>
								</split>
								<split pos="right">
									<output> 2.3269231 </output>
								</split>
							</split>
						</split>
					</split>
				</split>
				<split pos="right">
					<feature> 44 </feature>
					<threshold> 0.04881116 </threshold>
					<split pos="left">
						<feature> 23 </feature>
						<threshold> 0.6691941 </threshold>
						<split pos="left">
							<output> 1.8928572 </output>
						</split>
						<split pos="right">
							<output> 1.4148148 </output>
						</split>
					</split>
					<split pos="right">
						<output> 1.2090396 </output>
					</split>
				</split>
			</split>
		</split>
	</tree>
</ensemble>