<?xml version="1.0" encoding="UTF-8"?>
<ensemble>
	<tree id="1" weight="0.1">
		<split>
			<feature> 33 </feature>
			<threshold> 0.0 </threshold>
			<split pos="left">
				<output> 0.0 </output>
			</split>
			<split pos="right">
				<feature> 51 </feature>
				<threshold> 0.0 </threshold>
				<split pos="left">
					<feature> 65 </feature>
					<threshold> 0.4296875 </threshold>
					<split pos="left">
						<feature> 29 </feature>
						<threshold> 0.203125 </threshold>
						<split pos="left">
							<output> 1.5697675 </output>
						</split>
						<split pos="right">
							<output> 1.8195488 </output>
						</split>
					</split>
					<split pos="right">
						<feature> 58 </feature>
						<threshold> 0.98645747 </threshold>
						<split pos="left">
							<feature> 62 </feature>
							<threshold> 0.48828125 </threshold>
							<split pos="left">
								<feature> 35 </feature>
								<threshold> 0.13671875 </threshold>
								<split pos="left">
									<feature> 59 </feature>
									<threshold> 0.1764706 </threshold>
									<split pos="left">
										<output> 2.1888113 </output>
									</split>
									<split pos="right">
										<feature> 58 </feature>
										<threshold> 0.92889106 </threshold>
										<split pos="left">
											<feature> 23 </feature>
											<threshold> 0.75607145 </threshold>
											<split pos="left">
												<feature> 1 </feature>
												<threshold> 0.18518518 </threshold>
												<split pos="left">
													<output> 8.5 </output>
												</split>
												<split pos="right">
													<feature> 65 </feature>
													<threshold> 0.6015625 </threshold>
													<split pos="left">
														<output> 3.72 </output>
													</split>
													<split pos="right">
														<output> 2.3636363 </output>
													</split>
												</split>
											</split>
											<split pos="right">
												<output> 5.1578946 </output>
											</split>
										</split>
										<split pos="right">
											<feature> 65 </feature>
											<threshold> 0.4375 </threshold>
											<split pos="left">
												<output> 7.75 </output>
											</split>
											<split pos="right">
												<feature> 49 </feature>
												<threshold> 0.022520857 </threshold>
												<split pos="left">
													<feature> 13 </feature>
													<threshold> 0.0 </threshold>
													<split pos="left">
														<output> 2.1464646 </output>
													</split>
													<split pos="right">
														<output> 2.75 </output>
													</split>
												</split>
												<split pos="right">
													<feature> 49 </feature>
													<threshold> 0.031931944 </threshold>
													<split pos="left">
														<feature> 41 </feature>
														<threshold> 0.1484375 </threshold>
														<split pos="left">
															<output> 12.0 </output>
														</split>
														<split pos="right">
															<output> 3.5365853 </output>
														</split>
													</split>
													<split pos="right">
														<output> 1.7692307 </output>
													</split>
												</split>
											</split>
										</split>
									</split>
								</split>
								<split pos="right">
									<feature> 17 </feature>
									<threshold> 0.5438732 </threshold>
									<split pos="left">
										<output> 2.596774 </output>
									</split>
									<split pos="right">
										<feature> 53 </feature>
										<threshold> 0.67811996 </threshold>
										<split pos="left">
											<output> 2.375 </output>
										</split>
										<split pos="right">
											<output> 1.7125 </output>
										</split>
									</split>
								</split>
							</split>
							<split pos="right">
								<feature> 30 </feature>
								<threshold> 0.72265625 </threshold>
								<split pos="left">
									<output> 2.4268293 </output>
								</split>
								<split pos="right">
									<feature> 52 </feature>
									<threshold> 0.004362546 </threshold>
									<split pos="left">
										<feature> 62 </feature>
										<threshold> 0.73046875 </threshold>
										<split pos="left">
											<feature> 39 </feature>
											<threshold> 0.6056065 </threshold>
											<split pos="left">
												<output> 1.4266212 </output>
											</split>
											<split pos="right">
												<output> 4.5 </output>
											</split>
										</split>
										<split pos="right">
											<feature> 58 </feature>
											<threshold> 0.85439336 </threshold>
											<split pos="left">
												<output> 4.0 </output>
											</split>
											<split pos="right">
												<output> 2.0 </output>
											</split>
										</split>
									</split>
									<split pos="right">
										<output> 5.0 </output>
									</split>
								</split>
							</split>
						</split>
						<split pos="right">
							<feature> 13 </feature>
							<threshold> 0.0 </threshold>
							<split pos="left">
								<feature> 48 </feature>
								<threshold> 0.09594489 </threshold>
								<split pos="left">
									<feature> 2 </feature>
									<threshold> 0.0 </threshold>
									<split pos="left">
										<output> 1.981132 </output>
									</split>
									<split pos="right">
										<output> 1.6575342 </output>
									</split>
								</split>
								<split pos="right">
									<output> 1.6055555 </output>
								</split>
							</split>
							<split pos="right">
								<output> 2.1845238 </output>
							</split>
						</split>
					</split>
				</split>
				<split pos="right">
					<feature> 67 </feature>
					<threshold> 0.8828177 </threshold>
					<split pos="left">
						<feature> 4 </feature>
						<threshold> 0.045801528 </threshold>
						<split pos="left">
							<feature> 58 </feature>
							<threshold> 0.69862545 </threshold>
							<split pos="left">
								<feature> 7 </feature>
								<threshold> 0.0078125 </threshold>
								<split pos="left">
									<feature> 30 </feature>
									<threshold> 0.8046875 </threshold>
									<split pos="left">
										<output> 3.9767442 </output>
									</split>
									<split pos="right">
										<output> 1.4736842 </output>
									</split>
								</split>
								<split pos="right">
									<feature> 30 </feature>
									<threshold> 0.40234375 </threshold>
									<split pos="left">
										<feature> 32 </feature>
										<threshold> 0.0859375 </threshold>
										<split pos="left">
											<feature> 32 </feature>
											<threshold> 0.08203125 </threshold>
											<split pos="left">
												<feature> 42 </feature>
												<threshold> 0.034622703 </threshold>
												<split pos="left">
													<feature> 27 </feature>
													<threshold> 0.64444774 </threshold>
													<split pos="left">
														<output> 2.442623 </output>
													</split>
													<split pos="right">
														<feature> 55 </feature>
														<threshold> 0.019799154 </threshold>
														<split pos="left">
															<feature> 12 </feature>
															<threshold> 0.78125 </threshold>
															<split pos="left">
																<feature> 52 </feature>
																<threshold> 0.008267007 </threshold>
																<split pos="left">
																	<output> 1.873606 </output>
																</split>
																<split pos="right">
																	<output> 2.3947368 </output>
																</split>
															</split>
															<split pos="right">
																<output> 3.2272727 </output>
															</split>
														</split>
														<split pos="right">
															<output> 1.7151898 </output>
														</split>
													</split>
												</split>
												<split pos="right">
													<feature> 53 </feature>
													<threshold> 0.39114287 </threshold>
													<split pos="left">
														<output> 1.4 </output>
													</split>
													<split pos="right">
														<output> 1.8181819 </output>
													</split>
												</split>
											</split>
											<split pos="right">
												<output> 4.285714 </output>
											</split>
										</split>
										<split pos="right">
											<output> 1.3207548 </output>
										</split>
									</split>
									<split pos="right">
										<feature> 17 </feature>
										<threshold> 0.58597744 </threshold>
										<split pos="left">
											<output> 2.09375 </output>
										</split>
										<split pos="right">
											<feature> 23 </feature>
											<threshold> 0.7594129 </threshold>
											<split pos="left">
												<feature> 23 </feature>
												<threshold> 0.7427057 </threshold>
												<split pos="left">
													<feature> 6 </feature>
													<threshold> 0.009975063 </threshold>
													<split pos="left">
														<output> 1.6982758 </output>
													</split>
													<split pos="right">
														<output> 1.4579831 </output>
													</split>
												</split>
												<split pos="right">
													<output> 1.244898 </output>
												</split>
											</split>
											<split pos="right">
												<output> 1.8415842 </output>
											</split>
										</split>
									</split>
								</split>
							</split>
							<split pos="right">
								<feature> 21 </feature>
								<threshold> 0.7152239 </threshold>
								<split pos="left">
									<feature> 46 </feature>
									<threshold> 0.020824037 </threshold>
									<split pos="left">
										<feature> 58 </feature>
										<threshold> 0.8747109 </threshold>
										<split pos="left">
											<feature> 28 </feature>
											<threshold> 0.4119832 </threshold>
											<split pos="left">
												<output> 3.3243244 </output>
											</split>
											<split pos="right">
												<feature> 6 </feature>
												<threshold> 0.0024937657 </threshold>
												<split pos="left">
													<output> 1.6164384 </output>
												</split>
												<split pos="right">
													<output> 2.2183907 </output>
												</split>
											</split>
										</split>
										<split pos="right">
											<feature> 21 </feature>
											<threshold> 0.4909915 </threshold>
											<split pos="left">
												<output> 1.6487455 </output>
											</split>
											<split pos="right">
												<output> 1.4229829 </output>
											</split>
										</split>
									</split>
									<split pos="right">
										<feature> 58 </feature>
										<threshold> 0.88825595 </threshold>
										<split pos="left">
											<feature> 32 </feature>
											<threshold> 0.94921875 </threshold>
											<split pos="left">
												<feature> 63 </feature>
												<threshold> 0.17578125 </threshold>
												<split pos="left">
													<feature> 32 </feature>
													<threshold> 0.39453125 </threshold>
													<split pos="left">
														<output> 1.72 </output>
													</split>
													<split pos="right">
														<feature> 20 </feature>
														<threshold> 0.68561846 </threshold>
														<split pos="left">
															<output> 3.4166667 </output>
														</split>
														<split pos="right">
															<feature> 23 </feature>
															<threshold> 0.54556096 </threshold>
															<split pos="left">
																<output> 3.3 </output>
															</split>
															<split pos="right">
																<feature> 21 </feature>
																<threshold> 0.71135783 </threshold>
																<split pos="left">
																	<output> 2.0 </output>
																</split>
																<split pos="right">
																	<output> 7.0 </output>
																</split>
															</split>
														</split>
													</split>
												</split>
												<split pos="right">
													<output> 3.857143 </output>
												</split>
											</split>
											<split pos="right">
												<output> 5.3333335 </output>
											</split>
										</split>
										<split pos="right">
											<feature> 27 </feature>
											<threshold> 0.481789 </threshold>
											<split pos="left">
												<output> 3.8 </output>
											</split>
											<split pos="right">
												<feature> 31 </feature>
												<threshold> 0.9023439 </threshold>
												<split pos="left">
													<output> 2.0612245 </output>
												</split>
												<split pos="right">
													<feature> 57 </feature>
													<threshold> 0.7734375 </threshold>
													<split pos="left">
														<output> 2.6 </output>
													</split>
													<split pos="right">
														<feature> 62 </feature>
														<threshold> 0.5078125 </threshold>
														<split pos="left">
															<output> 1.687898 </output>
														</split>
														<split pos="right">
															<output> 1.4387097 </output>
														</split>
													</split>
												</split>
											</split>
										</split>
									</split>
								</split>
								<split pos="right">
									<feature> 11 </feature>
									<threshold> 0.00390625 </threshold>
									<split pos="left">
										<feature> 65 </feature>
										<threshold> 0.6640625 </threshold>
										<split pos="left">
											<feature> 39 </feature>
											<threshold> 0.2141523 </threshold>
											<split pos="left">
												<output> 1.454321 </output>
											</split>
											<split pos="right">
												<output> 1.6798419 </output>
											</split>
										</split>
										<split pos="right">
											<feature> 17 </feature>
											<threshold> 0.85614634 </threshold>
											<split pos="left">
												<feature> 59 </feature>
												<threshold> 0.5882353 </threshold>
												<split pos="left">
													<feature> 39 </feature>
													<threshold> 0.23717907 </threshold>
													<split pos="left">
														<feature> 48 </feature>
														<threshold> 0.10493972 </threshold>
														<split pos="left">
															<output> 1.8125 </output>
														</split>
														<split pos="right">
															<output> 1.514151 </output>
														</split>
													</split>
													<split pos="right">
														<output> 2.1188118 </output>
													</split>
												</split>
												<split pos="right">
													<output> 2.857143 </output>
												</split>
											</split>
											<split pos="right">
												<output> 8.5 </output>
											</split>
										</split>
									</split>
									<split pos="right">
										<feature> 58 </feature>
										<threshold> 0.73248804 </threshold>
										<split pos="left">
											<output> 1.5977443 </output>
										</split>
										<split pos="right">
											<feature> 12 </feature>
											<threshold> 0.77734375 </threshold>
											<split pos="left">
												<feature> 16 </feature>
												<threshold> 0.028571429 </threshold>
												<split pos="left">
													<feature> 29 </feature>
													<threshold> 0.109375 </threshold>
													<split pos="left">
														<output> 1.333935 </output>
													</split>
													<split pos="right">
														<output> 1.6811594 </output>
													</split>
												</split>
												<split pos="right">
													<output> 2.2222223 </output>
												</split>
											</split>
											<split pos="right">
												<output> 1.7446809 </output>
											</split>
										</split>
									</split>
								</split>
							</split>
						</split>
						<split pos="right">
							<feature> 63 </feature>
							<threshold> 0.00390625 </threshold>
							<split pos="left">
								<feature> 42 </feature>
								<threshold> 0.02510146 </threshold>
								<split pos="left">
									<feature> 46 </feature>
									<threshold> 0.015475646 </threshold>
									<split pos="left">
										<output> 1.9565217 </output>
									</split>
									<split pos="right">
										<output> 3.8 </output>
									</split>
								</split>
								<split pos="right">
									<feature> 56 </feature>
									<threshold> 0.37109375 </threshold>
									<split pos="left">
										<feature> 25 </feature>
										<threshold> 0.70670956 </threshold>
										<split pos="left">
											<feature> 21 </feature>
											<threshold> 0.70749176 </threshold>
											<split pos="left">
												<output> 1.375 </output>
											</split>
											<split pos="right">
												<feature> 20 </feature>
												<threshold> 0.6033502 </threshold>
												<split pos="left">
													<output> 6.0 </output>
												</split>
												<split pos="right">
													<feature> 49 </feature>
													<threshold> 0.0023835944 </threshold>
													<split pos="left">
														<output> 2.7407408 </output>
													</split>
													<split pos="right">
														<feature> 58 </feature>
														<threshold> 0.53947127 </threshold>
														<split pos="left">
															<output> 2.288889 </output>
														</split>
														<split pos="right">
															<feature> 51 </feature>
															<threshold> 0.8787879 </threshold>
															<split pos="left">
																<feature> 61 </feature>
																<threshold> 0.10246554 </threshold>
																<split pos="left">
																	<feature> 58 </feature>
																	<threshold> 0.64783156 </threshold>
																	<split pos="left">
																		<feature> 11 </feature>
																		<threshold> 0.0078125 </threshold>
																		<split pos="left">
																			<output> 8.0 </output>
																		</split>
																		<split pos="right">
																			<feature> 43 </feature>
																			<threshold> 0.19301863 </threshold>
																			<split pos="left">
																				<output> 4.3333335 </output>
																			</split>
																			<split pos="right">
																				<output> 1.9957447 </output>
																			</split>
																		</split>
																	</split>
																	<split pos="right">
																		<output> 1.7327328 </output>
																	</split>
																</split>
																<split pos="right">
																	<output> 3.090909 </output>
																</split>
															</split>
															<split pos="right">
																<feature> 8 </feature>
																<threshold> 0.0546875 </threshold>
																<split pos="left">
																	<output> 1.3214285 </output>
																</split>
																<split pos="right">
																	<feature> 38 </feature>
																	<threshold> 0.8554433 </threshold>
																	<split pos="left">
																		<output> 1.2285714 </output>
																	</split>
																	<split pos="right">
																		<feature> 44 </feature>
																		<threshold> 0.033435933 </threshold>
																		<split pos="left">
																			<output> 1.3043479 </output>
																		</split>
																		<split pos="right">
																			<feature> 29 </feature>
																			<threshold> 0.04296875 </threshold>
																			<split pos="left">
																				<output> 1.9756098 </output>
																			</split>
																			<split pos="right">
																				<output> 1.700831 </output>
																			</split>
																		</split>
																	</split>
																</split>
															</split>
														</split>
													</split>
												</split>
											</split>
										</split>
										<split pos="right">
											<output> 1.4939024 </output>
										</split>
									</split>
									<split pos="right">
										<output> 1.37 </output>
									</split>
								</split>
							</split>
							<split pos="right">
								<feature> 30 </feature>
								<threshold> 0.3984375 </threshold>
								<split pos="left">
									<output> 3.0 </output>
								</split>
								<split pos="right">
									<feature> 58 </feature>
									<threshold> 0.68169415 </threshold>
									<split pos="left">
										<output> 3.625 </output>
									</split>
									<split pos="right">
										<feature> 22 </feature>
										<threshold> 0.7016555 </threshold>
										<split pos="left">
											<output> 1.2857143 </output>
										</split>
										<split pos="right">
											<feature> 58 </feature>
											<threshold> 0.8035995 </threshold>
											<split pos="left">
												<output> 2.4411764 </output>
											</split>
											<split pos="right">
												<output> 1.8816568 </output>
											</split>
										</split>
									</split>
								</split>
							</split>
						</split>
					</split>
					<split pos="right">
						<feature> 68 </feature>
						<threshold> 0.113449804 </threshold>
						<split pos="left">
							<feature> 46 </feature>
							<threshold> 0.008182398 </threshold>
							<split pos="left">
								<output> 5.0 </output>
							</split>
							<split pos="right">
								<feature> 48 </feature>
								<threshold> 0.074956946 </threshold>
								<split pos="left">
									<output> 1.6860465 </output>
								</split>
								<split pos="right">
									<feature> 52 </feature>
									<threshold> 0.047311615 </threshold>
									<split pos="left">
										<output> 1.264151 </output>
									</split>
									<split pos="right">
										<output> 1.4416404 </output>
									</split>
								</split>
							</split>
						</split>
						<split pos="right">
							<output> 6.0 </output>
						</split>
					</split>
				</split>
			</split>
		</split>
	</tree>
</ensemble>
