<?xml version="1.0" encoding="UTF-8"?>
<ensemble>
	<tree id="1" weight="0.1">
		<split>
			<feature> 55 </feature>
			<threshold> 0.011769186 </threshold>
			<split pos="left">
				<feature> 33 </feature>
				<threshold> 0.0 </threshold>
				<split pos="left">
					<output> 0.0 </output>
				</split>
				<split pos="right">
					<feature> 7 </feature>
					<threshold> 0.734375 </threshold>
					<split pos="left">
						<feature> 35 </feature>
						<threshold> 0.27734375 </threshold>
						<split pos="left">
							<feature> 50 </feature>
							<threshold> 0.0546875 </threshold>
							<split pos="left">
								<feature> 62 </feature>
								<threshold> 0.4993804 </threshold>
								<split pos="left">
									<feature> 21 </feature>
									<threshold> 0.3125 </threshold>
									<split pos="left">
										<feature> 58 </feature>
										<threshold> 0.9085735 </threshold>
										<split pos="left">
											<output> 3.6875 </output>
										</split>
										<split pos="right">
											<output> 1.8503401 </output>
										</split>
									</split>
									<split pos="right">
										<feature> 53 </feature>
										<threshold> 0.59668076 </threshold>
										<split pos="left">
											<feature> 26 </feature>
											<threshold> 0.77734375 </threshold>
											<split pos="left">
												<feature> 25 </feature>
												<threshold> 0.6371662 </threshold>
												<split pos="left">
													<output> 1.5855263 </output>
												</split>
												<split pos="right">
													<output> 1.9042904 </output>
												</split>
											</split>
											<split pos="right">
												<output> 1.4916388 </output>
											</split>
										</split>
										<split pos="right">
											<feature> 54 </feature>
											<threshold> 0.0066860677 </threshold>
											<split pos="left">
												<output> 2.75 </output>
											</split>
											<split pos="right">
												<feature> 62 </feature>
												<threshold> 0.38699657 </threshold>
												<split pos="left">
													<output> 6.0 </output>
												</split>
												<split pos="right">
													<feature> 3 </feature>
													<threshold> 0.25 </threshold>
													<split pos="left">
														<output> 1.6972477 </output>
													</split>
													<split pos="right">
														<feature> 58 </feature>
														<threshold> 0.45142898 </threshold>
														<split pos="left">
															<output> 7.0 </output>
														</split>
														<split pos="right">
															<feature> 19 </feature>
															<threshold> 0.7578125 </threshold>
															<split pos="left">
																<output> 2.5510204 </output>
															</split>
															<split pos="right">
																<output> 1.8224852 </output>
															</split>
														</split>
													</split>
												</split>
											</split>
										</split>
									</split>
								</split>
								<split pos="right">
									<feature> 49 </feature>
									<threshold> 0.012082357 </threshold>
									<split pos="left">
										<feature> 49 </feature>
										<threshold> 0.010212469 </threshold>
										<split pos="left">
											<output> 1.6528926 </output>
										</split>
										<split pos="right">
											<output> 2.0416667 </output>
										</split>
									</split>
									<split pos="right">
										<output> 1.5139443 </output>
									</split>
								</split>
							</split>
							<split pos="right">
								<output> 3.2857144 </output>
							</split>
						</split>
						<split pos="right">
							<output> 3.4285715 </output>
						</split>
					</split>
					<split pos="right">
						<output> 1.3423077 </output>
					</split>
				</split>
			</split>
			<split pos="right">
				<feature> 15 </feature>
				<threshold> 0.0 </threshold>
				<split pos="left">
					<output> 0.0 </output>
				</split>
				<split pos="right">
					<feature> 68 </feature>
					<threshold> 0.09515144 </threshold>
					<split pos="left">
						<feature> 33 </feature>
						<threshold> 0.0 </threshold>
						<split pos="left">
							<output> 0.0 </output>
						</split>
						<split pos="right">
							<feature> 28 </feature>
							<threshold> 0.16132057 </threshold>
							<split pos="left">
								<feature> 23 </feature>
								<threshold> 0.70260847 </threshold>
								<split pos="left">
									<feature> 68 </feature>
									<threshold> 0.036596697 </threshold>
									<split pos="left">
										<output> 1.6056339 </output>
									</split>
									<split pos="right">
										<feature> 60 </feature>
										<threshold> 0.6294777 </threshold>
										<split pos="left">
											<feature> 40 </feature>
											<threshold> 0.75637585 </threshold>
											<split pos="left">
												<output> 1.7529411 </output>
											</split>
											<split pos="right">
												<output> 2.25 </output>
											</split>
										</split>
										<split pos="right">
											<output> 5.0 </output>
										</split>
									</split>
								</split>
								<split pos="right">
									<feature> 58 </feature>
									<threshold> 0.97291243 </threshold>
									<split pos="left">
										<feature> 54 </feature>
										<threshold> 0.043961573 </threshold>
										<split pos="left">
											<feature> 45 </feature>
											<threshold> 0.9303954 </threshold>
											<split pos="left">
												<output> 4.1666665 </output>
											</split>
											<split pos="right">
												<output> 2.1666667 </output>
											</split>
										</split>
										<split pos="right">
											<feature> 65 </feature>
											<threshold> 0.4375 </threshold>
											<split pos="left">
												<output> 11.0 </output>
											</split>
											<split pos="right">
												<feature> 48 </feature>
												<threshold> 0.0938231 </threshold>
												<split pos="left">
													<output> 5.0 </output>
												</split>
												<split pos="right">
													<output> 2.4509804 </output>
												</split>
											</split>
										</split>
									</split>
									<split pos="right">
										<output> 1.8119266 </output>
									</split>
								</split>
							</split>
							<split pos="right">
								<feature> 9 </feature>
								<threshold> 0.92578125 </threshold>
								<split pos="left">
									<feature> 17 </feature>
									<threshold> 0.8982506 </threshold>
									<split pos="left">
										<feature> 20 </feature>
										<threshold> 0.85015494 </threshold>
										<split pos="left">
											<feature> 39 </feature>
											<threshold> 0.18479037 </threshold>
											<split pos="left">
												<feature> 42 </feature>
												<threshold> 0.0235507 </threshold>
												<split pos="left">
													<output> 2.3076923 </output>
												</split>
												<split pos="right">
													<feature> 68 </feature>
													<threshold> 0.08051275 </threshold>
													<split pos="left">
														<output> 1.6454082 </output>
													</split>
													<split pos="right">
														<output> 1.2 </output>
													</split>
												</split>
											</split>
											<split pos="right">
												<feature> 62 </feature>
												<threshold> 0.46191913 </threshold>
												<split pos="left">
													<output> 3.7777777 </output>
												</split>
												<split pos="right">
													<feature> 57 </feature>
													<threshold> 0.9296875 </threshold>
													<split pos="left">
														<feature> 4 </feature>
														<threshold> 0.045801528 </threshold>
														<split pos="left">
															<output> 2.0 </output>
														</split>
														<split pos="right">
															<output> 3.347826 </output>
														</split>
													</split>
													<split pos="right">
														<feature> 37 </feature>
														<threshold> 0.29173964 </threshold>
														<split pos="left">
															<feature> 58 </feature>
															<threshold> 0.45142898 </threshold>
															<split pos="left">
																<output> 4.0 </output>
															</split>
															<split pos="right">
																<feature> 24 </feature>
																<threshold> 0.8692419 </threshold>
																<split pos="left">
																	<feature> 20 </feature>
																	<threshold> 0.84427863 </threshold>
																	<split pos="left">
																		<feature> 4 </feature>
																		<threshold> 0.091603056 </threshold>
																		<split pos="left">
																			<feature> 42 </feature>
																			<threshold> 0.031055406 </threshold>
																			<split pos="left">
																				<output> 1.627027 </output>
																			</split>
																			<split pos="right">
																				<feature> 44 </feature>
																				<threshold> 0.05125091 </threshold>
																				<split pos="left">
																					<feature> 59 </feature>
																					<threshold> 0.38235295 </threshold>
																					<split pos="left">
																						<feature> 53 </feature>
																						<threshold> 0.60831493 </threshold>
																						<split pos="left">
																							<output> 1.690763 </output>
																						</split>
																						<split pos="right">
																							<output> 2.0056818 </output>
																						</split>
																					</split>
																					<split pos="right">
																						<output> 2.2727273 </output>
																					</split>
																				</split>
																				<split pos="right">
																					<output> 1.6060606 </output>
																				</split>
																			</split>
																		</split>
																		<split pos="right">
																			<feature> 11 </feature>
																			<threshold> 0.09375 </threshold>
																			<split pos="left">
																				<feature> 60 </feature>
																				<threshold> 0.1090866 </threshold>
																				<split pos="left">
																					<feature> 7 </feature>
																					<threshold> 0.0078125 </threshold>
																					<split pos="left">
																						<output> 2.4375 </output>
																					</split>
																					<split pos="right">
																						<feature> 68 </feature>
																						<threshold> 0.01097901 </threshold>
																						<split pos="left">
																							<output> 1.7536232 </output>
																						</split>
																						<split pos="right">
																							<output> 2.2410715 </output>
																						</split>
																					</split>
																				</split>
																				<split pos="right">
																					<output> 6.0 </output>
																				</split>
																			</split>
																			<split pos="right">
																				<output> 1.6687899 </output>
																			</split>
																		</split>
																	</split>
																	<split pos="right">
																		<output> 2.4074075 </output>
																	</split>
																</split>
																<split pos="right">
																	<output> 1.2888889 </output>
																</split>
															</split>
														</split>
														<split pos="right">
															<output> 4.0 </output>
														</split>
													</split>
												</split>
											</split>
										</split>
										<split pos="right">
											<feature> 58 </feature>
											<threshold> 0.76296437 </threshold>
											<split pos="left">
												<feature> 13 </feature>
												<threshold> 0.002507051 </threshold>
												<split pos="left">
													<output> 2.55 </output>
												</split>
												<split pos="right">
													<feature> 36 </feature>
													<threshold> 0.17398758 </threshold>
													<split pos="left">
														<feature> 56 </feature>
														<threshold> 0.296875 </threshold>
														<split pos="left">
															<feature> 6 </feature>
															<threshold> 0.12219451 </threshold>
															<split pos="left">
																<feature> 61 </feature>
																<threshold> 0.03853019 </threshold>
																<split pos="left">
																	<feature> 19 </feature>
																	<threshold> 0.81640625 </threshold>
																	<split pos="left">
																		<output> 1.1052631 </output>
																	</split>
																	<split pos="right">
																		<feature> 53 </feature>
																		<threshold> 0.5229977 </threshold>
																		<split pos="left">
																			<output> 1.4418604 </output>
																		</split>
																		<split pos="right">
																			<output> 1.863517 </output>
																		</split>
																	</split>
																</split>
																<split pos="right">
																	<output> 2.0681818 </output>
																</split>
															</split>
															<split pos="right">
																<output> 1.2352941 </output>
															</split>
														</split>
														<split pos="right">
															<output> 3.375 </output>
														</split>
													</split>
													<split pos="right">
														<feature> 26 </feature>
														<threshold> 0.78125 </threshold>
														<split pos="left">
															<output> 1.7628866 </output>
														</split>
														<split pos="right">
															<feature> 28 </feature>
															<threshold> 0.5330586 </threshold>
															<split pos="left">
																<output> 2.15 </output>
															</split>
															<split pos="right">
																<output> 1.5095694 </output>
															</split>
														</split>
													</split>
												</split>
											</split>
											<split pos="right">
												<feature> 14 </feature>
												<threshold> 0.048812505 </threshold>
												<split pos="left">
													<feature> 65 </feature>
													<threshold> 0.56640625 </threshold>
													<split pos="left">
														<output> 1.4347826 </output>
													</split>
													<split pos="right">
														<feature> 21 </feature>
														<threshold> 0.62109375 </threshold>
														<split pos="left">
															<output> 1.8636364 </output>
														</split>
														<split pos="right">
															<feature> 39 </feature>
															<threshold> 0.2887351 </threshold>
															<split pos="left">
																<feature> 33 </feature>
																<threshold> 0.011111111 </threshold>
																<split pos="left">
																	<feature> 22 </feature>
																	<threshold> 0.70674443 </threshold>
																	<split pos="left">
																		<output> 2.09375 </output>
																	</split>
																	<split pos="right">
																		<feature> 19 </feature>
																		<threshold> 0.0 </threshold>
																		<split pos="left">
																			<output> 4.0 </output>
																		</split>
																		<split pos="right">
																			<feature> 17 </feature>
																			<threshold> 0.5929948 </threshold>
																			<split pos="left">
																				<output> 1.1555556 </output>
																			</split>
																			<split pos="right">
																				<feature> 58 </feature>
																				<threshold> 0.8408483 </threshold>
																				<split pos="left">
																					<output> 1.7014925 </output>
																				</split>
																				<split pos="right">
																					<output> 1.5186105 </output>
																				</split>
																			</split>
																		</split>
																	</split>
																</split>
																<split pos="right">
																	<output> 1.9761904 </output>
																</split>
															</split>
															<split pos="right">
																<output> 2.3529413 </output>
															</split>
														</split>
													</split>
												</split>
												<split pos="right">
													<output> 1.4051725 </output>
												</split>
											</split>
										</split>
									</split>
									<split pos="right">
										<output> 11.0 </output>
									</split>
								</split>
								<split pos="right">
									<feature> 58 </feature>
									<threshold> 0.52592623 </threshold>
									<split pos="left">
										<output> 1.6666666 </output>
									</split>
									<split pos="right">
										<output> 1.2764505 </output>
									</split>
								</split>
							</split>
						</split>
					</split>
					<split pos="right">
						<feature> 37 </feature>
						<threshold> 0.10516203 </threshold>
						<split pos="left">
							<feature> 46 </feature>
							<threshold> 0.024239559 </threshold>
							<split pos="left">
								<output> 2.3333333 </output>
							</split>
							<split pos="right">
								<feature> 32 </feature>
								<threshold> 0.8828125 </threshold>
								<split pos="left">
									<output> 1.1 </output>
								</split>
								<split pos="right">
									<feature> 9 </feature>
									<threshold> 0.0 </threshold>
									<split pos="left">
										<output> 1.6 </output>
									</split>
									<split pos="right">
										<output> 9.25 </output>
									</split>
								</split>
							</split>
						</split>
						<split pos="right">
							<feature> 62 </feature>
							<threshold> 0.49256927 </threshold>
							<split pos="left">
								<feature> 38 </feature>
								<threshold> 0.8972036 </threshold>
								<split pos="left">
									<feature> 33 </feature>
									<threshold> 0.0 </threshold>
									<split pos="left">
										<output> 0.0 </output>
									</split>
									<split pos="right">
										<feature> 31 </feature>
										<threshold> 0.007812692 </threshold>
										<split pos="left">
											<feature> 42 </feature>
											<threshold> 0.032419898 </threshold>
											<split pos="left">
												<output> 1.5269461 </output>
											</split>
											<split pos="right">
												<output> 1.9023256 </output>
											</split>
										</split>
										<split pos="right">
											<feature> 52 </feature>
											<threshold> 0.008039753 </threshold>
											<split pos="left">
												<feature> 5 </feature>
												<threshold> 0.02734375 </threshold>
												<split pos="left">
													<feature> 21 </feature>
													<threshold> 0.5390625 </threshold>
													<split pos="left">
														<feature> 65 </feature>
														<threshold> 0.5859375 </threshold>
														<split pos="left">
															<feature> 58 </feature>
															<threshold> 0.92889106 </threshold>
															<split pos="left">
																<output> 3.0 </output>
															</split>
															<split pos="right">
																<feature> 60 </feature>
																<threshold> 0.22828192 </threshold>
																<split pos="left">
																	<feature> 13 </feature>
																	<threshold> 0.0 </threshold>
																	<split pos="left">
																		<feature> 58 </feature>
																		<threshold> 0.9898437 </threshold>
																		<split pos="left">
																			<output> 1.902439 </output>
																		</split>
																		<split pos="right">
																			<output> 1.5815603 </output>
																		</split>
																	</split>
																	<split pos="right">
																		<output> 2.1013513 </output>
																	</split>
																</split>
																<split pos="right">
																	<output> 3.6666667 </output>
																</split>
															</split>
														</split>
														<split pos="right">
															<feature> 22 </feature>
															<threshold> 0.90539694 </threshold>
															<split pos="left">
																<feature> 16 </feature>
																<threshold> 0.0 </threshold>
																<split pos="left">
																	<feature> 58 </feature>
																	<threshold> 0.81375825 </threshold>
																	<split pos="left">
																		<output> 4.6 </output>
																	</split>
																	<split pos="right">
																		<output> 2.3314607 </output>
																	</split>
																</split>
																<split pos="right">
																	<output> 1.9285715 </output>
																</split>
															</split>
															<split pos="right">
																<output> 6.0 </output>
															</split>
														</split>
													</split>
													<split pos="right">
														<feature> 38 </feature>
														<threshold> 0.83295697 </threshold>
														<split pos="left">
															<output> 2.4736843 </output>
														</split>
														<split pos="right">
															<output> 1.6505576 </output>
														</split>
													</split>
												</split>
												<split pos="right">
													<output> 2.7037036 </output>
												</split>
											</split>
											<split pos="right">
												<feature> 17 </feature>
												<threshold> 0.680712 </threshold>
												<split pos="left">
													<output> 7.571429 </output>
												</split>
												<split pos="right">
													<output> 1.0 </output>
												</split>
											</split>
										</split>
									</split>
								</split>
								<split pos="right">
									<output> 4.5 </output>
								</split>
							</split>
							<split pos="right">
								<feature> 13 </feature>
								<threshold> 0.0 </threshold>
								<split pos="left">
									<feature> 57 </feature>
									<threshold> 0.9296875 </threshold>
									<split pos="left">
										<feature> 62 </feature>
										<threshold> 0.6969035 </threshold>
										<split pos="left">
											<output> 1.4386792 </output>
										</split>
										<split pos="right">
											<output> 2.0 </output>
										</split>
									</split>
									<split pos="right">
										<output> 1.3107345 </output>
									</split>
								</split>
								<split pos="right">
									<feature> 63 </feature>
									<threshold> 0.04296875 </threshold>
									<split pos="left">
										<output> 1.6849315 </output>
									</split>
									<split pos="right">
										<output> 2.1242604 </output>
									</split>
								</split>
							</split>
						</split>
					</split>
				</split>
			</split>
		</split>
	</tree>
</ensemble>
