<?xml version="1.0" encoding="UTF-8"?>
<ensemble>
	<tree id="1" weight="0.1">
		<split>
			<feature> 27 </feature>
			<threshold> 0.7299273 </threshold>
			<split pos="left">
				<feature> 50 </feature>
				<threshold> 0.0 </threshold>
				<split pos="left">
					<feature> 33 </feature>
					<threshold> 0.0 </threshold>
					<split pos="left">
						<output> 0.0 </output>
					</split>
					<split pos="right">
						<feature> 32 </feature>
						<threshold> 0.81640625 </threshold>
						<split pos="left">
							<feature> 39 </feature>
							<threshold> 0.5640755 </threshold>
							<split pos="left">
								<feature> 17 </feature>
								<threshold> 0.8665335 </threshold>
								<split pos="left">
									<feature> 58 </feature>
									<threshold> 0.6952392 </threshold>
									<split pos="left">
										<output> 2.1034484 </output>
									</split>
									<split pos="right">
										<feature> 16 </feature>
										<threshold> 0.014285714 </threshold>
										<split pos="left">
											<feature> 29 </feature>
											<threshold> 0.01171875 </threshold>
											<split pos="left">
												<feature> 48 </feature>
												<threshold> 0.08073407 </threshold>
												<split pos="left">
													<output> 1.5364238 </output>
												</split>
												<split pos="right">
													<feature> 57 </feature>
													<threshold> 0.74609375 </threshold>
													<split pos="left">
														<output> 4.0 </output>
													</split>
													<split pos="right">
														<feature> 27 </feature>
														<threshold> 0.48375246 </threshold>
														<split pos="left">
															<output> 2.8 </output>
														</split>
														<split pos="right">
															<feature> 54 </feature>
															<threshold> 0.0053104046 </threshold>
															<split pos="left">
																<output> 3.0 </output>
															</split>
															<split pos="right">
																<feature> 25 </feature>
																<threshold> 0.6643788 </threshold>
																<split pos="left">
																	<output> 2.232143 </output>
																</split>
																<split pos="right">
																	<feature> 22 </feature>
																	<threshold> 0.81031317 </threshold>
																	<split pos="left">
																		<feature> 61 </feature>
																		<threshold> 0.06210735 </threshold>
																		<split pos="left">
																			<output> 1.7991632 </output>
																		</split>
																		<split pos="right">
																			<output> 2.4230769 </output>
																		</split>
																	</split>
																	<split pos="right">
																		<output> 1.5533333 </output>
																	</split>
																</split>
															</split>
														</split>
													</split>
												</split>
											</split>
											<split pos="right">
												<feature> 27 </feature>
												<threshold> 0.6787741 </threshold>
												<split pos="left">
													<feature> 29 </feature>
													<threshold> 0.05859375 </threshold>
													<split pos="left">
														<output> 1.9449542 </output>
													</split>
													<split pos="right">
														<output> 1.5638889 </output>
													</split>
												</split>
												<split pos="right">
													<output> 1.4589235 </output>
												</split>
											</split>
										</split>
										<split pos="right">
											<output> 2.0060976 </output>
										</split>
									</split>
								</split>
								<split pos="right">
									<output> 3.3333333 </output>
								</split>
							</split>
							<split pos="right">
								<output> 9.0 </output>
							</split>
						</split>
						<split pos="right">
							<feature> 43 </feature>
							<threshold> 0.19691934 </threshold>
							<split pos="left">
								<feature> 58 </feature>
								<threshold> 0.83068955 </threshold>
								<split pos="left">
									<output> 6.7272725 </output>
								</split>
								<split pos="right">
									<feature> 58 </feature>
									<threshold> 0.9525949 </threshold>
									<split pos="left">
										<output> 2.8703704 </output>
									</split>
									<split pos="right">
										<output> 1.7763158 </output>
									</split>
								</split>
							</split>
							<split pos="right">
								<feature> 38 </feature>
								<threshold> 0.908726 </threshold>
								<split pos="left">
									<feature> 30 </feature>
									<threshold> 0.41015625 </threshold>
									<split pos="left">
										<output> 2.487805 </output>
									</split>
									<split pos="right">
										<feature> 36 </feature>
										<threshold> 0.17398758 </threshold>
										<split pos="left">
											<feature> 49 </feature>
											<threshold> 0.022520857 </threshold>
											<split pos="left">
												<feature> 62 </feature>
												<threshold> 0.5078125 </threshold>
												<split pos="left">
													<feature> 27 </feature>
													<threshold> 0.7267302 </threshold>
													<split pos="left">
														<feature> 41 </feature>
														<threshold> 0.28515625 </threshold>
														<split pos="left">
															<output> 1.7647059 </output>
														</split>
														<split pos="right">
															<output> 2.2473118 </output>
														</split>
													</split>
													<split pos="right">
														<output> 4.0 </output>
													</split>
												</split>
												<split pos="right">
													<output> 1.5238096 </output>
												</split>
											</split>
											<split pos="right">
												<feature> 19 </feature>
												<threshold> 0.83984375 </threshold>
												<split pos="left">
													<output> 1.4 </output>
												</split>
												<split pos="right">
													<feature> 45 </feature>
													<threshold> 0.938949 </threshold>
													<split pos="left">
														<output> 1.8125 </output>
													</split>
													<split pos="right">
														<output> 4.5652175 </output>
													</split>
												</split>
											</split>
										</split>
										<split pos="right">
											<feature> 27 </feature>
											<threshold> 0.55089116 </threshold>
											<split pos="left">
												<output> 2.0273972 </output>
											</split>
											<split pos="right">
												<output> 1.5870308 </output>
											</split>
										</split>
									</split>
								</split>
								<split pos="right">
									<output> 3.642857 </output>
								</split>
							</split>
						</split>
					</split>
				</split>
				<split pos="right">
					<feature> 17 </feature>
					<threshold> 0.89322686 </threshold>
					<split pos="left">
						<feature> 33 </feature>
						<threshold> 0.0 </threshold>
						<split pos="left">
							<output> 0.0 </output>
						</split>
						<split pos="right">
							<feature> 5 </feature>
							<threshold> 0.734375 </threshold>
							<split pos="left">
								<feature> 28 </feature>
								<threshold> 0.15959734 </threshold>
								<split pos="left">
									<feature> 58 </feature>
									<threshold> 0.9695262 </threshold>
									<split pos="left">
										<feature> 64 </feature>
										<threshold> 0.0 </threshold>
										<split pos="left">
											<feature> 59 </feature>
											<threshold> 0.2647059 </threshold>
											<split pos="left">
												<feature> 65 </feature>
												<threshold> 0.4375 </threshold>
												<split pos="left">
													<output> 7.25 </output>
												</split>
												<split pos="right">
													<output> 3.25 </output>
												</split>
											</split>
											<split pos="right">
												<output> 2.1454546 </output>
											</split>
										</split>
										<split pos="right">
											<feature> 59 </feature>
											<threshold> 0.4117647 </threshold>
											<split pos="left">
												<feature> 36 </feature>
												<threshold> 0.17398758 </threshold>
												<split pos="left">
													<output> 2.3043478 </output>
												</split>
												<split pos="right">
													<output> 1.7333333 </output>
												</split>
											</split>
											<split pos="right">
												<output> 3.4666667 </output>
											</split>
										</split>
									</split>
									<split pos="right">
										<feature> 62 </feature>
										<threshold> 0.51171875 </threshold>
										<split pos="left">
											<output> 1.8304597 </output>
										</split>
										<split pos="right">
											<output> 1.382353 </output>
										</split>
									</split>
								</split>
								<split pos="right">
									<feature> 58 </feature>
									<threshold> 0.73926055 </threshold>
									<split pos="left">
										<feature> 13 </feature>
										<threshold> 0.0072077718 </threshold>
										<split pos="left">
											<feature> 4 </feature>
											<threshold> 0.015267176 </threshold>
											<split pos="left">
												<output> 2.1298702 </output>
											</split>
											<split pos="right">
												<output> 3.0270271 </output>
											</split>
										</split>
										<split pos="right">
											<feature> 18 </feature>
											<threshold> 0.3306104 </threshold>
											<split pos="left">
												<output> 6.0 </output>
											</split>
											<split pos="right">
												<feature> 22 </feature>
												<threshold> 0.70511144 </threshold>
												<split pos="left">
													<output> 2.1027398 </output>
												</split>
												<split pos="right">
													<feature> 38 </feature>
													<threshold> 0.85830617 </threshold>
													<split pos="left">
														<feature> 9 </feature>
														<threshold> 0.0234375 </threshold>
														<split pos="left">
															<output> 1.5505883 </output>
														</split>
														<split pos="right">
															<feature> 64 </feature>
															<threshold> 0.02734375 </threshold>
															<split pos="left">
																<output> 3.0 </output>
															</split>
															<split pos="right">
																<feature> 51 </feature>
																<threshold> 0.959596 </threshold>
																<split pos="left">
																	<feature> 13 </feature>
																	<threshold> 0.018489502 </threshold>
																	<split pos="left">
																		<output> 4.0 </output>
																	</split>
																	<split pos="right">
																		<feature> 22 </feature>
																		<threshold> 0.8070256 </threshold>
																		<split pos="left">
																			<output> 1.6447761 </output>
																		</split>
																		<split pos="right">
																			<output> 1.8607595 </output>
																		</split>
																	</split>
																</split>
																<split pos="right">
																	<output> 1.1081082 </output>
																</split>
															</split>
														</split>
													</split>
													<split pos="right">
														<feature> 26 </feature>
														<threshold> 0.640625 </threshold>
														<split pos="left">
															<output> 1.5833334 </output>
														</split>
														<split pos="right">
															<feature> 58 </feature>
															<threshold> 0.6173552 </threshold>
															<split pos="left">
																<feature> 20 </feature>
																<threshold> 0.9794336 </threshold>
																<split pos="left">
																	<feature> 15 </feature>
																	<threshold> 0.0028847996 </threshold>
																	<split pos="left">
																		<output> 2.642857 </output>
																	</split>
																	<split pos="right">
																		<feature> 57 </feature>
																		<threshold> 0.9921875 </threshold>
																		<split pos="left">
																			<feature> 50 </feature>
																			<threshold> 0.29296875 </threshold>
																			<split pos="left">
																				<feature> 19 </feature>
																				<threshold> 0.73828125 </threshold>
																				<split pos="left">
																					<output> 1.515625 </output>
																				</split>
																				<split pos="right">
																					<feature> 33 </feature>
																					<threshold> 0.011111111 </threshold>
																					<split pos="left">
																						<output> 1.8734794 </output>
																					</split>
																					<split pos="right">
																						<output> 2.2903225 </output>
																					</split>
																				</split>
																			</split>
																			<split pos="right">
																				<output> 3.0 </output>
																			</split>
																		</split>
																		<split pos="right">
																			<output> 1.175 </output>
																		</split>
																	</split>
																</split>
																<split pos="right">
																	<output> 2.6 </output>
																</split>
															</split>
															<split pos="right">
																<feature> 56 </feature>
																<threshold> 0.1484375 </threshold>
																<split pos="left">
																	<feature> 11 </feature>
																	<threshold> 0.02734375 </threshold>
																	<split pos="left">
																		<output> 1.3555555 </output>
																	</split>
																	<split pos="right">
																		<output> 1.7590028 </output>
																	</split>
																</split>
																<split pos="right">
																	<output> 1.9501916 </output>
																</split>
															</split>
														</split>
													</split>
												</split>
											</split>
										</split>
									</split>
									<split pos="right">
										<feature> 62 </feature>
										<threshold> 0.7578125 </threshold>
										<split pos="left">
											<feature> 61 </feature>
											<threshold> 0.11591827 </threshold>
											<split pos="left">
												<feature> 14 </feature>
												<threshold> 0.04317307 </threshold>
												<split pos="left">
													<feature> 13 </feature>
													<threshold> 3.1338137E-4 </threshold>
													<split pos="left">
														<feature> 58 </feature>
														<threshold> 0.86455214 </threshold>
														<split pos="left">
															<output> 1.9347826 </output>
														</split>
														<split pos="right">
															<feature> 52 </feature>
															<threshold> 0.008267007 </threshold>
															<split pos="left">
																<output> 1.5065217 </output>
															</split>
															<split pos="right">
																<output> 2.75 </output>
															</split>
														</split>
													</split>
													<split pos="right">
														<feature> 58 </feature>
														<threshold> 0.8035995 </threshold>
														<split pos="left">
															<output> 2.3846154 </output>
														</split>
														<split pos="right">
															<output> 1.7945205 </output>
														</split>
													</split>
												</split>
												<split pos="right">
													<feature> 50 </feature>
													<threshold> 0.140625 </threshold>
													<split pos="left">
														<feature> 49 </feature>
														<threshold> 6.36995E-4 </threshold>
														<split pos="left">
															<output> 4.0 </output>
														</split>
														<split pos="right">
															<feature> 54 </feature>
															<threshold> 0.0449222 </threshold>
															<split pos="left">
																<feature> 33 </feature>
																<threshold> 0.022222223 </threshold>
																<split pos="left">
																	<feature> 51 </feature>
																	<threshold> 0.08080808 </threshold>
																	<split pos="left">
																		<output> 2.15 </output>
																	</split>
																	<split pos="right">
																		<feature> 49 </feature>
																		<threshold> 0.009493281 </threshold>
																		<split pos="left">
																			<output> 1.7056075 </output>
																		</split>
																		<split pos="right">
																			<output> 1.545662 </output>
																		</split>
																	</split>
																</split>
																<split pos="right">
																	<output> 2.2142856 </output>
																</split>
															</split>
															<split pos="right">
																<output> 6.5 </output>
															</split>
														</split>
													</split>
													<split pos="right">
														<output> 1.3690476 </output>
													</split>
												</split>
											</split>
											<split pos="right">
												<output> 2.1833334 </output>
											</split>
										</split>
										<split pos="right">
											<output> 1.15 </output>
										</split>
									</split>
								</split>
							</split>
							<split pos="right">
								<feature> 47 </feature>
								<threshold> 0.026921736 </threshold>
								<split pos="left">
									<output> 1.6692914 </output>
								</split>
								<split pos="right">
									<output> 1.349741 </output>
								</split>
							</split>
						</split>
					</split>
					<split pos="right">
						<output> 11.0 </output>
					</split>
				</split>
			</split>
			<split pos="right">
				<feature> 21 </feature>
				<threshold> 0.6340363 </threshold>
				<split pos="left">
					<feature> 33 </feature>
					<threshold> 0.0 </threshold>
					<split pos="left">
						<output> 0.0 </output>
					</split>
					<split pos="right">
						<feature> 58 </feature>
						<threshold> 0.8577796 </threshold>
						<split pos="left">
							<feature> 42 </feature>
							<threshold> 0.049144153 </threshold>
							<split pos="left">
								<output> 2.52 </output>
							</split>
							<split pos="right">
								<output> 7.6666665 </output>
							</split>
						</split>
						<split pos="right">
							<feature> 39 </feature>
							<threshold> 0.55688316 </threshold>
							<split pos="left">
								<feature> 13 </feature>
								<threshold> 0.0 </threshold>
								<split pos="left">
									<feature> 27 </feature>
									<threshold> 0.8418249 </threshold>
									<split pos="left">
										<feature> 62 </feature>
										<threshold> 0.515625 </threshold>
										<split pos="left">
											<feature> 57 </feature>
											<threshold> 0.87109375 </threshold>
											<split pos="left">
												<output> 2.04717 </output>
											</split>
											<split pos="right">
												<output> 1.6840278 </output>
											</split>
										</split>
										<split pos="right">
											<output> 1.398374 </output>
										</split>
									</split>
									<split pos="right">
										<output> 3.1666667 </output>
									</split>
								</split>
								<split pos="right">
									<output> 2.1578948 </output>
								</split>
							</split>
							<split pos="right">
								<output> 3.5 </output>
							</split>
						</split>
					</split>
				</split>
				<split pos="right">
					<feature> 7 </feature>
					<threshold> 0.00390625 </threshold>
					<split pos="left">
						<feature> 58 </feature>
						<threshold> 0.70539796 </threshold>
						<split pos="left">
							<output> 1.3070187E-4 </output>
						</split>
						<split pos="right">
							<output> 1.6236559 </output>
						</split>
					</split>
					<split pos="right">
						<feature> 58 </feature>
						<threshold> 0.44804275 </threshold>
						<split pos="left">
							<output> 0.024271844 </output>
						</split>
						<split pos="right">
							<feature> 8 </feature>
							<threshold> 0.0078125 </threshold>
							<split pos="left">
								<output> 1.4117647 </output>
							</split>
							<split pos="right">
								<feature> 59 </feature>
								<threshold> 0.44117647 </threshold>
								<split pos="left">
									<feature> 58 </feature>
									<threshold> 0.45142898 </threshold>
									<split pos="left">
										<output> 7.0 </output>
									</split>
									<split pos="right">
										<feature> 64 </feature>
										<threshold> 0.73828125 </threshold>
										<split pos="left">
											<feature> 55 </feature>
											<threshold> 0.14970447 </threshold>
											<split pos="left">
												<feature> 29 </feature>
												<threshold> 0.10546875 </threshold>
												<split pos="left">
													<feature> 11 </feature>
													<threshold> 0.15234375 </threshold>
													<split pos="left">
														<feature> 26 </feature>
														<threshold> 0.68359375 </threshold>
														<split pos="left">
															<output> 2.7142856 </output>
														</split>
														<split pos="right">
															<output> 1.7566845 </output>
														</split>
													</split>
													<split pos="right">
														<output> 2.0384614 </output>
													</split>
												</split>
												<split pos="right">
													<output> 1.3773584 </output>
												</split>
											</split>
											<split pos="right">
												<output> 1.0625 </output>
											</split>
										</split>
										<split pos="right">
											<output> 1.3829787 </output>
										</split>
									</split>
								</split>
								<split pos="right">
									<feature> 60 </feature>
									<threshold> 0.01275579 </threshold>
									<split pos="left">
										<output> 1.7213115 </output>
									</split>
									<split pos="right">
										<feature> 44 </feature>
										<threshold> 0.047653362 </threshold>
										<split pos="left">
											<output> 8.0 </output>
										</split>
										<split pos="right">
											<output> 1.5454545 </output>
										</split>
									</split>
								</split>
							</split>
						</split>
					</split>
				</split>
			</split>
		</split>
	</tree>
</ensemble>