<?xml version="1.0" encoding="UTF-8"?>
<ensemble>
	<tree id="1" weight="0.1">
		<split>
			<feature> 50 </feature>
			<threshold> 0.0 </threshold>
			<split pos="left">
				<feature> 58 </feature>
				<threshold> 0.64783156 </threshold>
				<split pos="left">
					<feature> 33 </feature>
					<threshold> 0.0 </threshold>
					<split pos="left">
						<output> 0.0 </output>
					</split>
					<split pos="right">
						<output> 1.875 </output>
					</split>
				</split>
				<split pos="right">
					<feature> 33 </feature>
					<threshold> 0.0 </threshold>
					<split pos="left">
						<output> 0.0 </output>
					</split>
					<split pos="right">
						<feature> 63 </feature>
						<threshold> 0.03515625 </threshold>
						<split pos="left">
							<feature> 22 </feature>
							<threshold> 0.44179067 </threshold>
							<split pos="left">
								<output> 7.0 </output>
							</split>
							<split pos="right">
								<feature> 58 </feature>
								<threshold> 0.73926055 </threshold>
								<split pos="left">
									<feature> 68 </feature>
									<threshold> 0.025430815 </threshold>
									<split pos="left">
										<output> 1.8661972 </output>
									</split>
									<split pos="right">
										<output> 2.6666667 </output>
									</split>
								</split>
								<split pos="right">
									<feature> 27 </feature>
									<threshold> 0.7929335 </threshold>
									<split pos="left">
										<feature> 11 </feature>
										<threshold> 0.0078125 </threshold>
										<split pos="left">
											<feature> 59 </feature>
											<threshold> 0.5588235 </threshold>
											<split pos="left">
												<feature> 58 </feature>
												<threshold> 0.8273033 </threshold>
												<split pos="left">
													<feature> 1 </feature>
													<threshold> 0.18518518 </threshold>
													<split pos="left">
														<output> 2.310345 </output>
													</split>
													<split pos="right">
														<output> 1.7464114 </output>
													</split>
												</split>
												<split pos="right">
													<feature> 62 </feature>
													<threshold> 0.4993804 </threshold>
													<split pos="left">
														<feature> 26 </feature>
														<threshold> 0.640625 </threshold>
														<split pos="left">
															<output> 1.9466667 </output>
														</split>
														<split pos="right">
															<feature> 32 </feature>
															<threshold> 0.76171875 </threshold>
															<split pos="left">
																<output> 1.6134454 </output>
															</split>
															<split pos="right">
																<output> 1.9375 </output>
															</split>
														</split>
													</split>
													<split pos="right">
														<output> 1.5 </output>
													</split>
												</split>
											</split>
											<split pos="right">
												<output> 2.52 </output>
											</split>
										</split>
										<split pos="right">
											<output> 1.3428571 </output>
										</split>
									</split>
									<split pos="right">
										<output> 3.4 </output>
									</split>
								</split>
							</split>
						</split>
						<split pos="right">
							<feature> 58 </feature>
							<threshold> 0.8848697 </threshold>
							<split pos="left">
								<feature> 58 </feature>
								<threshold> 0.73248804 </threshold>
								<split pos="left">
									<feature> 59 </feature>
									<threshold> 0.44117647 </threshold>
									<split pos="left">
										<output> 2.5 </output>
									</split>
									<split pos="right">
										<output> 14.0 </output>
									</split>
								</split>
								<split pos="right">
									<feature> 65 </feature>
									<threshold> 0.6328125 </threshold>
									<split pos="left">
										<feature> 39 </feature>
										<threshold> 0.2133627 </threshold>
										<split pos="left">
											<feature> 49 </feature>
											<threshold> 0.011733037 </threshold>
											<split pos="left">
												<output> 2.7916667 </output>
											</split>
											<split pos="right">
												<output> 4.8235292 </output>
											</split>
										</split>
										<split pos="right">
											<output> 2.0697675 </output>
										</split>
									</split>
									<split pos="right">
										<output> 2.0347826 </output>
									</split>
								</split>
							</split>
							<split pos="right">
								<feature> 65 </feature>
								<threshold> 0.38671875 </threshold>
								<split pos="left">
									<output> 1.5333333 </output>
								</split>
								<split pos="right">
									<feature> 37 </feature>
									<threshold> 0.10516203 </threshold>
									<split pos="left">
										<feature> 49 </feature>
										<threshold> 0.019192044 </threshold>
										<split pos="left">
											<output> 1.9836066 </output>
										</split>
										<split pos="right">
											<feature> 57 </feature>
											<threshold> 0.9375 </threshold>
											<split pos="left">
												<output> 9.333333 </output>
											</split>
											<split pos="right">
												<output> 2.5833333 </output>
											</split>
										</split>
									</split>
									<split pos="right">
										<feature> 62 </feature>
										<threshold> 0.5095971 </threshold>
										<split pos="left">
											<feature> 30 </feature>
											<threshold> 0.41796875 </threshold>
											<split pos="left">
												<output> 2.3846154 </output>
											</split>
											<split pos="right">
												<feature> 23 </feature>
												<threshold> 0.699267 </threshold>
												<split pos="left">
													<feature> 38 </feature>
													<threshold> 0.85223097 </threshold>
													<split pos="left">
														<output> 2.0294118 </output>
													</split>
													<split pos="right">
														<output> 1.619217 </output>
													</split>
												</split>
												<split pos="right">
													<feature> 58 </feature>
													<threshold> 0.9322773 </threshold>
													<split pos="left">
														<output> 2.8793104 </output>
													</split>
													<split pos="right">
														<feature> 42 </feature>
														<threshold> 0.038526867 </threshold>
														<split pos="left">
															<output> 1.8018868 </output>
														</split>
														<split pos="right">
															<output> 2.2650602 </output>
														</split>
													</split>
												</split>
											</split>
										</split>
										<split pos="right">
											<feature> 24 </feature>
											<threshold> 0.41020322 </threshold>
											<split pos="left">
												<output> 3.8 </output>
											</split>
											<split pos="right">
												<feature> 48 </feature>
												<threshold> 0.17687958 </threshold>
												<split pos="left">
													<feature> 20 </feature>
													<threshold> 0.8765983 </threshold>
													<split pos="left">
														<output> 1.7580645 </output>
													</split>
													<split pos="right">
														<output> 1.4770643 </output>
													</split>
												</split>
												<split pos="right">
													<output> 2.2727273 </output>
												</split>
											</split>
										</split>
									</split>
								</split>
							</split>
						</split>
					</split>
				</split>
			</split>
			<split pos="right">
				<feature> 68 </feature>
				<threshold> 0.098090254 </threshold>
				<split pos="left">
					<feature> 58 </feature>
					<threshold> 0.4785188 </threshold>
					<split pos="left">
						<feature> 66 </feature>
						<threshold> 0.015625 </threshold>
						<split pos="left">
							<output> 0.012455516 </output>
						</split>
						<split pos="right">
							<output> 1.6935484 </output>
						</split>
					</split>
					<split pos="right">
						<feature> 33 </feature>
						<threshold> 0.0 </threshold>
						<split pos="left">
							<output> 0.0 </output>
						</split>
						<split pos="right">
							<feature> 67 </feature>
							<threshold> 0.8828125 </threshold>
							<split pos="left">
								<feature> 64 </feature>
								<threshold> 0.0 </threshold>
								<split pos="left">
									<feature> 60 </feature>
									<threshold> 0.029742211 </threshold>
									<split pos="left">
										<feature> 65 </feature>
										<threshold> 0.546875 </threshold>
										<split pos="left">
											<output> 2.119403 </output>
										</split>
										<split pos="right">
											<output> 3.0 </output>
										</split>
									</split>
									<split pos="right">
										<output> 1.4655173 </output>
									</split>
								</split>
								<split pos="right">
									<feature> 17 </feature>
									<threshold> 0.89322686 </threshold>
									<split pos="left">
										<feature> 58 </feature>
										<threshold> 0.7528056 </threshold>
										<split pos="left">
											<feature> 14 </feature>
											<threshold> 0.047031242 </threshold>
											<split pos="left">
												<feature> 30 </feature>
												<threshold> 0.41015625 </threshold>
												<split pos="left">
													<output> 3.5681818 </output>
												</split>
												<split pos="right">
													<output> 2.4 </output>
												</split>
											</split>
											<split pos="right">
												<feature> 20 </feature>
												<threshold> 0.84427863 </threshold>
												<split pos="left">
													<feature> 28 </feature>
													<threshold> 0.3086132 </threshold>
													<split pos="left">
														<output> 6.0 </output>
													</split>
													<split pos="right">
														<feature> 62 </feature>
														<threshold> 0.46191913 </threshold>
														<split pos="left">
															<output> 3.142857 </output>
														</split>
														<split pos="right">
															<feature> 51 </feature>
															<threshold> 0.26262626 </threshold>
															<split pos="left">
																<output> 2.2692308 </output>
															</split>
															<split pos="right">
																<feature> 12 </feature>
																<threshold> 0.765625 </threshold>
																<split pos="left">
																	<feature> 45 </feature>
																	<threshold> 0.95242 </threshold>
																	<split pos="left">
																		<feature> 58 </feature>
																		<threshold> 0.5056087 </threshold>
																		<split pos="left">
																			<output> 3.2 </output>
																		</split>
																		<split pos="right">
																			<feature> 6 </feature>
																			<threshold> 0.03241895 </threshold>
																			<split pos="left">
																				<output> 1.5648535 </output>
																			</split>
																			<split pos="right">
																				<output> 2.0 </output>
																			</split>
																		</split>
																	</split>
																	<split pos="right">
																		<output> 2.2222223 </output>
																	</split>
																</split>
																<split pos="right">
																	<feature> 27 </feature>
																	<threshold> 0.63166106 </threshold>
																	<split pos="left">
																		<output> 1.4464285 </output>
																	</split>
																	<split pos="right">
																		<feature> 63 </feature>
																		<threshold> 0.00390625 </threshold>
																		<split pos="left">
																			<feature> 57 </feature>
																			<threshold> 0.9921875 </threshold>
																			<split pos="left">
																				<feature> 42 </feature>
																				<threshold> 0.027286422 </threshold>
																				<split pos="left">
																					<output> 2.1985295 </output>
																				</split>
																				<split pos="right">
																					<feature> 41 </feature>
																					<threshold> 0.296875 </threshold>
																					<split pos="left">
																						<feature> 21 </feature>
																						<threshold> 0.71875 </threshold>
																						<split pos="left">
																							<output> 1.4666667 </output>
																						</split>
																						<split pos="right">
																							<output> 1.8434579 </output>
																						</split>
																					</split>
																					<split pos="right">
																						<feature> 36 </feature>
																						<threshold> 0.1701212 </threshold>
																						<split pos="left">
																							<feature> 17 </feature>
																							<threshold> 0.6363034 </threshold>
																							<split pos="left">
																								<output> 2.8510637 </output>
																							</split>
																							<split pos="right">
																								<output> 1.9351852 </output>
																							</split>
																						</split>
																						<split pos="right">
																							<output> 1.8074074 </output>
																						</split>
																					</split>
																				</split>
																			</split>
																			<split pos="right">
																				<output> 1.3918918 </output>
																			</split>
																		</split>
																		<split pos="right">
																			<output> 5.0 </output>
																		</split>
																	</split>
																</split>
															</split>
														</split>
													</split>
												</split>
												<split pos="right">
													<feature> 36 </feature>
													<threshold> 0.17398758 </threshold>
													<split pos="left">
														<feature> 53 </feature>
														<threshold> 0.6279883 </threshold>
														<split pos="left">
															<feature> 65 </feature>
															<threshold> 0.703125 </threshold>
															<split pos="left">
																<output> 4.3333335 </output>
															</split>
															<split pos="right">
																<feature> 68 </feature>
																<threshold> 0.0036329736 </threshold>
																<split pos="left">
																	<output> 1.2946428 </output>
																</split>
																<split pos="right">
																	<output> 1.767507 </output>
																</split>
															</split>
														</split>
														<split pos="right">
															<feature> 54 </feature>
															<threshold> 0.007709436 </threshold>
															<split pos="left">
																<output> 3.2727273 </output>
															</split>
															<split pos="right">
																<feature> 16 </feature>
																<threshold> 0.004761905 </threshold>
																<split pos="left">
																	<output> 1.7581967 </output>
																</split>
																<split pos="right">
																	<output> 2.2162163 </output>
																</split>
															</split>
														</split>
													</split>
													<split pos="right">
														<feature> 7 </feature>
														<threshold> 0.05859375 </threshold>
														<split pos="left">
															<output> 1.4447368 </output>
														</split>
														<split pos="right">
															<output> 1.7379135 </output>
														</split>
													</split>
												</split>
											</split>
										</split>
										<split pos="right">
											<feature> 5 </feature>
											<threshold> 0.0078125 </threshold>
											<split pos="left">
												<feature> 60 </feature>
												<threshold> 0.4081287 </threshold>
												<split pos="left">
													<feature> 1 </feature>
													<threshold> 0.33333334 </threshold>
													<split pos="left">
														<feature> 54 </feature>
														<threshold> 0.12830862 </threshold>
														<split pos="left">
															<output> 1.5794393 </output>
														</split>
														<split pos="right">
															<output> 2.1142857 </output>
														</split>
													</split>
													<split pos="right">
														<output> 1.9497908 </output>
													</split>
												</split>
												<split pos="right">
													<output> 5.0 </output>
												</split>
											</split>
											<split pos="right">
												<feature> 17 </feature>
												<threshold> 0.5628967 </threshold>
												<split pos="left">
													<output> 1.7291666 </output>
												</split>
												<split pos="right">
													<feature> 1 </feature>
													<threshold> 0.18518518 </threshold>
													<split pos="left">
														<output> 1.3593074 </output>
													</split>
													<split pos="right">
														<feature> 39 </feature>
														<threshold> 0.1938915 </threshold>
														<split pos="left">
															<output> 1.4302325 </output>
														</split>
														<split pos="right">
															<feature> 36 </feature>
															<threshold> 0.22038426 </threshold>
															<split pos="left">
																<feature> 14 </feature>
																<threshold> 0.054747585 </threshold>
																<split pos="left">
																	<output> 1.6507937 </output>
																</split>
																<split pos="right">
																	<output> 1.3375 </output>
																</split>
															</split>
															<split pos="right">
																<output> 1.0555556 </output>
															</split>
														</split>
													</split>
												</split>
											</split>
										</split>
									</split>
									<split pos="right">
										<output> 11.0 </output>
									</split>
								</split>
							</split>
							<split pos="right">
								<output> 1.3978494 </output>
							</split>
						</split>
					</split>
				</split>
				<split pos="right">
					<feature> 58 </feature>
					<threshold> 0.6783079 </threshold>
					<split pos="left">
						<feature> 8 </feature>
						<threshold> 0.00390625 </threshold>
						<split pos="left">
							<feature> 27 </feature>
							<threshold> 0.6727697 </threshold>
							<split pos="left">
								<feature> 4 </feature>
								<threshold> 0.012722646 </threshold>
								<split pos="left">
									<output> 4.5625 </output>
								</split>
								<split pos="right">
									<output> 10.666667 </output>
								</split>
							</split>
							<split pos="right">
								<output> 1.8947369 </output>
							</split>
						</split>
						<split pos="right">
							<feature> 1 </feature>
							<threshold> 0.6 </threshold>
							<split pos="left">
								<output> 1.7333333 </output>
							</split>
							<split pos="right">
								<feature> 36 </feature>
								<threshold> 0.16238841 </threshold>
								<split pos="left">
									<output> 13.0 </output>
								</split>
								<split pos="right">
									<output> 2.409091 </output>
								</split>
							</split>
						</split>
					</split>
					<split pos="right">
						<feature> 27 </feature>
						<threshold> 0.35655057 </threshold>
						<split pos="left">
							<output> 4.5555553 </output>
						</split>
						<split pos="right">
							<feature> 38 </feature>
							<threshold> 0.8972036 </threshold>
							<split pos="left">
								<feature> 41 </feature>
								<threshold> 0.37890625 </threshold>
								<split pos="left">
									<feature> 21 </feature>
									<threshold> 0.78515625 </threshold>
									<split pos="left">
										<feature> 52 </feature>
										<threshold> 0.004362546 </threshold>
										<split pos="left">
											<feature> 49 </feature>
											<threshold> 0.009246702 </threshold>
											<split pos="left">
												<feature> 58 </feature>
												<threshold> 0.93904984 </threshold>
												<split pos="left">
													<feature> 9 </feature>
													<threshold> 0.0 </threshold>
													<split pos="left">
														<output> 4.9166665 </output>
													</split>
													<split pos="right">
														<output> 2.0757575 </output>
													</split>
												</split>
												<split pos="right">
													<output> 1.5301205 </output>
												</split>
											</split>
											<split pos="right">
												<feature> 58 </feature>
												<threshold> 0.79682696 </threshold>
												<split pos="left">
													<feature> 51 </feature>
													<threshold> 0.07070707 </threshold>
													<split pos="left">
														<output> 3.0588236 </output>
													</split>
													<split pos="right">
														<output> 1.8923076 </output>
													</split>
												</split>
												<split pos="right">
													<feature> 28 </feature>
													<threshold> 0.0 </threshold>
													<split pos="left">
														<feature> 13 </feature>
														<threshold> 0.0 </threshold>
														<split pos="left">
															<output> 1.6927537 </output>
														</split>
														<split pos="right">
															<output> 2.231884 </output>
														</split>
													</split>
													<split pos="right">
														<output> 1.5406977 </output>
													</split>
												</split>
											</split>
										</split>
										<split pos="right">
											<feature> 62 </feature>
											<threshold> 0.67306453 </threshold>
											<split pos="left">
												<feature> 21 </feature>
												<threshold> 0.78125 </threshold>
												<split pos="left">
													<output> 1.8974359 </output>
												</split>
												<split pos="right">
													<output> 5.0 </output>
												</split>
											</split>
											<split pos="right">
												<output> 8.25 </output>
											</split>
										</split>
									</split>
									<split pos="right">
										<output> 1.4263566 </output>
									</split>
								</split>
								<split pos="right">
									<output> 2.1886792 </output>
								</split>
							</split>
							<split pos="right">
								<output> 2.6363637 </output>
							</split>
						</split>
					</split>
				</split>
			</split>
		</split>
	</tree>
</ensemble>