<?xml version="1.0" encoding="UTF-8"?>
<ensemble>
	<tree id="1" weight="0.1">
		<split>
			<feature> 58 </feature>
			<threshold> 0.5530163 </threshold>
			<split pos="left">
				<feature> 64 </feature>
				<threshold> 0.0546875 </threshold>
				<split pos="left">
					<output> 0.0021971723 </output>
				</split>
				<split pos="right">
					<feature> 58 </feature>
					<threshold> 0.39386308 </threshold>
					<split pos="left">
						<output> 0.0 </output>
					</split>
					<split pos="right">
						<feature> 40 </feature>
						<threshold> 0.8769573 </threshold>
						<split pos="left">
							<feature> 56 </feature>
							<threshold> 0.1328125 </threshold>
							<split pos="left">
								<feature> 13 </feature>
								<threshold> 0.7859605 </threshold>
								<split pos="left">
									<feature> 46 </feature>
									<threshold> 0.008342786 </threshold>
									<split pos="left">
										<output> 5.0 </output>
									</split>
									<split pos="right">
										<feature> 45 </feature>
										<threshold> 0.9391823 </threshold>
										<split pos="left">
											<output> 1.3850267 </output>
										</split>
										<split pos="right">
											<feature> 46 </feature>
											<threshold> 0.021494044 </threshold>
											<split pos="left">
												<output> 1.5782609 </output>
											</split>
											<split pos="right">
												<feature> 52 </feature>
												<threshold> 0.05512054 </threshold>
												<split pos="left">
													<output> 1.6304348 </output>
												</split>
												<split pos="right">
													<output> 3.3043478 </output>
												</split>
											</split>
										</split>
									</split>
								</split>
								<split pos="right">
									<output> 2.0576923 </output>
								</split>
							</split>
							<split pos="right">
								<output> 5.0 </output>
							</split>
						</split>
						<split pos="right">
							<output> 7.0 </output>
						</split>
					</split>
				</split>
			</split>
			<split pos="right">
				<feature> 55 </feature>
				<threshold> 0.011218969 </threshold>
				<split pos="left">
					<feature> 27 </feature>
					<threshold> 0.751445 </threshold>
					<split pos="left">
						<feature> 33 </feature>
						<threshold> 0.0 </threshold>
						<split pos="left">
							<output> 0.0 </output>
						</split>
						<split pos="right">
							<feature> 36 </feature>
							<threshold> 0.12759091 </threshold>
							<split pos="left">
								<output> 3.1818182 </output>
							</split>
							<split pos="right">
								<feature> 63 </feature>
								<threshold> 0.00390625 </threshold>
								<split pos="left">
									<feature> 16 </feature>
									<threshold> 0.004761905 </threshold>
									<split pos="left">
										<feature> 28 </feature>
										<threshold> 0.24809158 </threshold>
										<split pos="left">
											<output> 2.25 </output>
										</split>
										<split pos="right">
											<feature> 41 </feature>
											<threshold> 0.31640625 </threshold>
											<split pos="left">
												<feature> 47 </feature>
												<threshold> 0.030134588 </threshold>
												<split pos="left">
													<output> 1.7412791 </output>
												</split>
												<split pos="right">
													<output> 1.5100671 </output>
												</split>
											</split>
											<split pos="right">
												<output> 1.4044445 </output>
											</split>
										</split>
									</split>
									<split pos="right">
										<output> 1.8801843 </output>
									</split>
								</split>
								<split pos="right">
									<feature> 62 </feature>
									<threshold> 0.60546875 </threshold>
									<split pos="left">
										<feature> 4 </feature>
										<threshold> 0.017811704 </threshold>
										<split pos="left">
											<feature> 58 </feature>
											<threshold> 0.8510071 </threshold>
											<split pos="left">
												<output> 2.390244 </output>
											</split>
											<split pos="right">
												<feature> 21 </feature>
												<threshold> 0.546875 </threshold>
												<split pos="left">
													<feature> 37 </feature>
													<threshold> 0.33583966 </threshold>
													<split pos="left">
														<output> 1.820598 </output>
													</split>
													<split pos="right">
														<output> 4.0 </output>
													</split>
												</split>
												<split pos="right">
													<output> 1.2 </output>
												</split>
											</split>
										</split>
										<split pos="right">
											<output> 2.2427185 </output>
										</split>
									</split>
									<split pos="right">
										<output> 1.5151515 </output>
									</split>
								</split>
							</split>
						</split>
					</split>
					<split pos="right">
						<feature> 33 </feature>
						<threshold> 0.0 </threshold>
						<split pos="left">
							<output> 0.0 </output>
						</split>
						<split pos="right">
							<output> 1.6763285 </output>
						</split>
					</split>
				</split>
				<split pos="right">
					<feature> 33 </feature>
					<threshold> 0.0 </threshold>
					<split pos="left">
						<output> 0.0 </output>
					</split>
					<split pos="right">
						<feature> 15 </feature>
						<threshold> 0.0035182186 </threshold>
						<split pos="left">
							<feature> 62 </feature>
							<threshold> 0.5078125 </threshold>
							<split pos="left">
								<feature> 21 </feature>
								<threshold> 0.30078125 </threshold>
								<split pos="left">
									<feature> 65 </feature>
									<threshold> 0.5 </threshold>
									<split pos="left">
										<feature> 24 </feature>
										<threshold> 0.89911735 </threshold>
										<split pos="left">
											<output> 2.0529802 </output>
										</split>
										<split pos="right">
											<feature> 40 </feature>
											<threshold> 0.4713651 </threshold>
											<split pos="left">
												<output> 2.1842105 </output>
											</split>
											<split pos="right">
												<feature> 65 </feature>
												<threshold> 0.3984375 </threshold>
												<split pos="left">
													<output> 1.55 </output>
												</split>
												<split pos="right">
													<output> 1.8185841 </output>
												</split>
											</split>
										</split>
									</split>
									<split pos="right">
										<feature> 38 </feature>
										<threshold> 0.90041596 </threshold>
										<split pos="left">
											<feature> 39 </feature>
											<threshold> 0.4658261 </threshold>
											<split pos="left">
												<feature> 12 </feature>
												<threshold> 0.76171875 </threshold>
												<split pos="left">
													<feature> 27 </feature>
													<threshold> 0.68179923 </threshold>
													<split pos="left">
														<feature> 58 </feature>
														<threshold> 0.8950285 </threshold>
														<split pos="left">
															<output> 2.8307693 </output>
														</split>
														<split pos="right">
															<feature> 22 </feature>
															<threshold> 0.5229045 </threshold>
															<split pos="left">
																<output> 2.5079365 </output>
															</split>
															<split pos="right">
																<feature> 61 </feature>
																<threshold> 0.1966161 </threshold>
																<split pos="left">
																	<feature> 30 </feature>
																	<threshold> 0.40234375 </threshold>
																	<split pos="left">
																		<output> 2.3275862 </output>
																	</split>
																	<split pos="right">
																		<feature> 36 </feature>
																		<threshold> 0.19331953 </threshold>
																		<split pos="left">
																			<output> 1.8969072 </output>
																		</split>
																		<split pos="right">
																			<output> 1.5555556 </output>
																		</split>
																	</split>
																</split>
																<split pos="right">
																	<output> 3.857143 </output>
																</split>
															</split>
														</split>
													</split>
													<split pos="right">
														<feature> 49 </feature>
														<threshold> 0.01576049 </threshold>
														<split pos="left">
															<feature> 59 </feature>
															<threshold> 0.44117647 </threshold>
															<split pos="left">
																<feature> 1 </feature>
																<threshold> 0.19259259 </threshold>
																<split pos="left">
																	<feature> 58 </feature>
																	<threshold> 0.9525949 </threshold>
																	<split pos="left">
																		<output> 4.4827585 </output>
																	</split>
																	<split pos="right">
																		<output> 2.375 </output>
																	</split>
																</split>
																<split pos="right">
																	<feature> 22 </feature>
																	<threshold> 0.75573194 </threshold>
																	<split pos="left">
																		<output> 2.7230768 </output>
																	</split>
																	<split pos="right">
																		<output> 1.9247311 </output>
																	</split>
																</split>
															</split>
															<split pos="right">
																<output> 4.125 </output>
															</split>
														</split>
														<split pos="right">
															<output> 1.9827586 </output>
														</split>
													</split>
												</split>
												<split pos="right">
													<output> 5.0 </output>
												</split>
											</split>
											<split pos="right">
												<output> 4.7272725 </output>
											</split>
										</split>
										<split pos="right">
											<feature> 44 </feature>
											<threshold> 0.043019578 </threshold>
											<split pos="left">
												<output> 2.347826 </output>
											</split>
											<split pos="right">
												<output> 4.4761906 </output>
											</split>
										</split>
									</split>
								</split>
								<split pos="right">
									<feature> 21 </feature>
									<threshold> 0.90625 </threshold>
									<split pos="left">
										<feature> 41 </feature>
										<threshold> 0.25390625 </threshold>
										<split pos="left">
											<feature> 65 </feature>
											<threshold> 0.828125 </threshold>
											<split pos="left">
												<feature> 63 </feature>
												<threshold> 0.24609375 </threshold>
												<split pos="left">
													<feature> 18 </feature>
													<threshold> 0.43921548 </threshold>
													<split pos="left">
														<output> 2.2 </output>
													</split>
													<split pos="right">
														<feature> 22 </feature>
														<threshold> 0.9198562 </threshold>
														<split pos="left">
															<output> 1.5397148 </output>
														</split>
														<split pos="right">
															<output> 2.375 </output>
														</split>
													</split>
												</split>
												<split pos="right">
													<output> 2.4705882 </output>
												</split>
											</split>
											<split pos="right">
												<output> 2.7777777 </output>
											</split>
										</split>
										<split pos="right">
											<feature> 58 </feature>
											<threshold> 0.8002132 </threshold>
											<split pos="left">
												<feature> 51 </feature>
												<threshold> 0.02020202 </threshold>
												<split pos="left">
													<output> 8.5 </output>
												</split>
												<split pos="right">
													<feature> 5 </feature>
													<threshold> 0.03515625 </threshold>
													<split pos="left">
														<feature> 58 </feature>
														<threshold> 0.6952392 </threshold>
														<split pos="left">
															<output> 4.3333335 </output>
														</split>
														<split pos="right">
															<feature> 40 </feature>
															<threshold> 0.5919466 </threshold>
															<split pos="left">
																<output> 5.0 </output>
															</split>
															<split pos="right">
																<feature> 3 </feature>
																<threshold> 0.0 </threshold>
																<split pos="left">
																	<output> 3.0 </output>
																</split>
																<split pos="right">
																	<output> 2.1970804 </output>
																</split>
															</split>
														</split>
													</split>
													<split pos="right">
														<feature> 44 </feature>
														<threshold> 0.04376788 </threshold>
														<split pos="left">
															<feature> 25 </feature>
															<threshold> 0.5817945 </threshold>
															<split pos="left">
																<output> 4.25 </output>
															</split>
															<split pos="right">
																<output> 1.9777777 </output>
															</split>
														</split>
														<split pos="right">
															<output> 1.7058823 </output>
														</split>
													</split>
												</split>
											</split>
											<split pos="right">
												<feature> 30 </feature>
												<threshold> 0.4453125 </threshold>
												<split pos="left">
													<feature> 52 </feature>
													<threshold> 0.008267007 </threshold>
													<split pos="left">
														<feature> 33 </feature>
														<threshold> 0.011111111 </threshold>
														<split pos="left">
															<feature> 22 </feature>
															<threshold> 0.92367303 </threshold>
															<split pos="left">
																<feature> 56 </feature>
																<threshold> 0.65234375 </threshold>
																<split pos="left">
																	<output> 1.553398 </output>
																</split>
																<split pos="right">
																	<output> 1.8597122 </output>
																</split>
															</split>
															<split pos="right">
																<output> 6.0 </output>
															</split>
														</split>
														<split pos="right">
															<output> 2.1911764 </output>
														</split>
													</split>
													<split pos="right">
														<output> 4.571429 </output>
													</split>
												</split>
												<split pos="right">
													<output> 1.5542452 </output>
												</split>
											</split>
										</split>
									</split>
									<split pos="right">
										<output> 11.0 </output>
									</split>
								</split>
							</split>
							<split pos="right">
								<feature> 13 </feature>
								<threshold> 0.0 </threshold>
								<split pos="left">
									<feature> 52 </feature>
									<threshold> 0.004362546 </threshold>
									<split pos="left">
										<feature> 65 </feature>
										<threshold> 0.65234375 </threshold>
										<split pos="left">
											<feature> 58 </feature>
											<threshold> 0.8577796 </threshold>
											<split pos="left">
												<output> 1.9756098 </output>
											</split>
											<split pos="right">
												<feature> 17 </feature>
												<threshold> 0.17149098 </threshold>
												<split pos="left">
													<output> 6.0 </output>
												</split>
												<split pos="right">
													<feature> 62 </feature>
													<threshold> 0.6796875 </threshold>
													<split pos="left">
														<output> 1.2631578 </output>
													</split>
													<split pos="right">
														<output> 1.5301205 </output>
													</split>
												</split>
											</split>
										</split>
										<split pos="right">
											<output> 1.8397436 </output>
										</split>
									</split>
									<split pos="right">
										<output> 5.0 </output>
									</split>
								</split>
								<split pos="right">
									<feature> 27 </feature>
									<threshold> 0.4691961 </threshold>
									<split pos="left">
										<output> 4.125 </output>
									</split>
									<split pos="right">
										<feature> 51 </feature>
										<threshold> 0.0 </threshold>
										<split pos="left">
											<output> 2.2432432 </output>
										</split>
										<split pos="right">
											<feature> 26 </feature>
											<threshold> 0.59375 </threshold>
											<split pos="left">
												<output> 2.15625 </output>
											</split>
											<split pos="right">
												<feature> 30 </feature>
												<threshold> 0.4921875 </threshold>
												<split pos="left">
													<output> 1.5053763 </output>
												</split>
												<split pos="right">
													<feature> 58 </feature>
													<threshold> 0.7697369 </threshold>
													<split pos="left">
														<output> 2.4126985 </output>
													</split>
													<split pos="right">
														<output> 1.6601307 </output>
													</split>
												</split>
											</split>
										</split>
									</split>
								</split>
							</split>
						</split>
						<split pos="right">
							<feature> 20 </feature>
							<threshold> 0.95808595 </threshold>
							<split pos="left">
								<feature> 17 </feature>
								<threshold> 0.6611162 </threshold>
								<split pos="left">
									<feature> 3 </feature>
									<threshold> 0.75 </threshold>
									<split pos="left">
										<feature> 19 </feature>
										<threshold> 0.88671875 </threshold>
										<split pos="left">
											<feature> 24 </feature>
											<threshold> 0.56285894 </threshold>
											<split pos="left">
												<output> 2.2830188 </output>
											</split>
											<split pos="right">
												<feature> 39 </feature>
												<threshold> 0.18479037 </threshold>
												<split pos="left">
													<output> 1.6153846 </output>
												</split>
												<split pos="right">
													<feature> 13 </feature>
													<threshold> 0.0018802884 </threshold>
													<split pos="left">
														<output> 2.6923077 </output>
													</split>
													<split pos="right">
														<feature> 28 </feature>
														<threshold> 0.7198149 </threshold>
														<split pos="left">
															<feature> 21 </feature>
															<threshold> 0.76171875 </threshold>
															<split pos="left">
																<output> 1.7012987 </output>
															</split>
															<split pos="right">
																<output> 2.1214952 </output>
															</split>
														</split>
														<split pos="right">
															<output> 2.130841 </output>
														</split>
													</split>
												</split>
											</split>
										</split>
										<split pos="right">
											<output> 3.5 </output>
										</split>
									</split>
									<split pos="right">
										<output> 1.6142857 </output>
									</split>
								</split>
								<split pos="right">
									<feature> 7 </feature>
									<threshold> 0.2890625 </threshold>
									<split pos="left">
										<feature> 65 </feature>
										<threshold> 0.8984375 </threshold>
										<split pos="left">
											<feature> 5 </feature>
											<threshold> 0.359375 </threshold>
											<split pos="left">
												<feature> 4 </feature>
												<threshold> 0.14503817 </threshold>
												<split pos="left">
													<feature> 68 </feature>
													<threshold> 0.16102548 </threshold>
													<split pos="left">
														<feature> 19 </feature>
														<threshold> 0.80859375 </threshold>
														<split pos="left">
															<output> 1.550926 </output>
														</split>
														<split pos="right">
															<feature> 35 </feature>
															<threshold> 0.13671875 </threshold>
															<split pos="left">
																<output> 1.6673913 </output>
															</split>
															<split pos="right">
																<output> 1.8848921 </output>
															</split>
														</split>
													</split>
													<split pos="right">
														<output> 1.2068965 </output>
													</split>
												</split>
												<split pos="right">
													<output> 1.9489796 </output>
												</split>
											</split>
											<split pos="right">
												<output> 1.4 </output>
											</split>
										</split>
										<split pos="right">
											<output> 1.137931 </output>
										</split>
									</split>
									<split pos="right">
										<output> 1.8813559 </output>
									</split>
								</split>
							</split>
							<split pos="right">
								<feature> 1 </feature>
								<threshold> 0.56296295 </threshold>
								<split pos="left">
									<feature> 36 </feature>
									<threshold> 0.16238841 </threshold>
									<split pos="left">
										<output> 1.8492063 </output>
									</split>
									<split pos="right">
										<feature> 11 </feature>
										<threshold> 0.09765625 </threshold>
										<split pos="left">
											<feature> 7 </feature>
											<threshold> 0.04296875 </threshold>
											<split pos="left">
												<feature> 41 </feature>
												<threshold> 0.2890625 </threshold>
												<split pos="left">
													<output> 1.3554503 </output>
												</split>
												<split pos="right">
													<output> 1.5867769 </output>
												</split>
											</split>
											<split pos="right">
												<output> 1.8012048 </output>
											</split>
										</split>
										<split pos="right">
											<output> 1.2885572 </output>
										</split>
									</split>
								</split>
								<split pos="right">
									<output> 1.8521127 </output>
								</split>
							</split>
						</split>
					</split>
				</split>
			</split>
		</split>
	</tree>
</ensemble>