<?xml version="1.0" encoding="UTF-8"?>
<ensemble>
	<tree id="1" weight="0.1">
		<split>
			<feature> 33 </feature>
			<threshold> 0.0 </threshold>
			<split pos="left">
				<output> 0.0 </output>
			</split>
			<split pos="right">
				<feature> 14 </feature>
				<threshold> 0.04317307 </threshold>
				<split pos="left">
					<feature> 56 </feature>
					<threshold> 0.33203125 </threshold>
					<split pos="left">
						<feature> 58 </feature>
						<threshold> 0.93904984 </threshold>
						<split pos="left">
							<feature> 62 </feature>
							<threshold> 0.5078125 </threshold>
							<split pos="left">
								<feature> 32 </feature>
								<threshold> 0.8359375 </threshold>
								<split pos="left">
									<output> 2.2061856 </output>
								</split>
								<split pos="right">
									<feature> 42 </feature>
									<threshold> 0.033757135 </threshold>
									<split pos="left">
										<feature> 58 </feature>
										<threshold> 0.80698574 </threshold>
										<split pos="left">
											<output> 4.375 </output>
										</split>
										<split pos="right">
											<feature> 47 </feature>
											<threshold> 0.017934348 </threshold>
											<split pos="left">
												<output> 1.25 </output>
											</split>
											<split pos="right">
												<output> 2.631068 </output>
											</split>
										</split>
									</split>
									<split pos="right">
										<feature> 43 </feature>
										<threshold> 0.19691934 </threshold>
										<split pos="left">
											<output> 7.0 </output>
										</split>
										<split pos="right">
											<feature> 45 </feature>
											<threshold> 0.92743284 </threshold>
											<split pos="left">
												<output> 2.0 </output>
											</split>
											<split pos="right">
												<feature> 27 </feature>
												<threshold> 0.75120354 </threshold>
												<split pos="left">
													<feature> 22 </feature>
													<threshold> 0.7595488 </threshold>
													<split pos="left">
														<output> 3.686747 </output>
													</split>
													<split pos="right">
														<output> 2.0 </output>
													</split>
												</split>
												<split pos="right">
													<output> 5.2380953 </output>
												</split>
											</split>
										</split>
									</split>
								</split>
							</split>
							<split pos="right">
								<feature> 58 </feature>
								<threshold> 0.7866682 </threshold>
								<split pos="left">
									<output> 3.2142856 </output>
								</split>
								<split pos="right">
									<output> 1.7619047 </output>
								</split>
							</split>
						</split>
						<split pos="right">
							<feature> 58 </feature>
							<threshold> 0.9898437 </threshold>
							<split pos="left">
								<feature> 62 </feature>
								<threshold> 0.48828125 </threshold>
								<split pos="left">
									<feature> 64 </feature>
									<threshold> 0.0 </threshold>
									<split pos="left">
										<feature> 49 </feature>
										<threshold> 0.022520857 </threshold>
										<split pos="left">
											<feature> 27 </feature>
											<threshold> 0.5476763 </threshold>
											<split pos="left">
												<output> 2.939394 </output>
											</split>
											<split pos="right">
												<output> 2.077821 </output>
											</split>
										</split>
										<split pos="right">
											<feature> 68 </feature>
											<threshold> 0.23055913 </threshold>
											<split pos="left">
												<feature> 48 </feature>
												<threshold> 0.11228009 </threshold>
												<split pos="left">
													<output> 2.6857142 </output>
												</split>
												<split pos="right">
													<output> 5.5 </output>
												</split>
											</split>
											<split pos="right">
												<output> 1.7222222 </output>
											</split>
										</split>
									</split>
									<split pos="right">
										<feature> 38 </feature>
										<threshold> 0.8843543 </threshold>
										<split pos="left">
											<output> 1.826087 </output>
										</split>
										<split pos="right">
											<output> 2.5128205 </output>
										</split>
									</split>
								</split>
								<split pos="right">
									<feature> 13 </feature>
									<threshold> 0.0 </threshold>
									<split pos="left">
										<feature> 17 </feature>
										<threshold> 0.1719548 </threshold>
										<split pos="left">
											<output> 6.0 </output>
										</split>
										<split pos="right">
											<feature> 49 </feature>
											<threshold> 0.004253483 </threshold>
											<split pos="left">
												<output> 2.6666667 </output>
											</split>
											<split pos="right">
												<output> 1.5023255 </output>
											</split>
										</split>
									</split>
									<split pos="right">
										<output> 2.45283 </output>
									</split>
								</split>
							</split>
							<split pos="right">
								<feature> 13 </feature>
								<threshold> 0.0 </threshold>
								<split pos="left">
									<feature> 62 </feature>
									<threshold> 0.515625 </threshold>
									<split pos="left">
										<feature> 39 </feature>
										<threshold> 0.3849802 </threshold>
										<split pos="left">
											<feature> 27 </feature>
											<threshold> 0.5106714 </threshold>
											<split pos="left">
												<output> 2.0285714 </output>
											</split>
											<split pos="right">
												<feature> 62 </feature>
												<threshold> 0.48828125 </threshold>
												<split pos="left">
													<output> 1.5481611 </output>
												</split>
												<split pos="right">
													<output> 1.879518 </output>
												</split>
											</split>
										</split>
										<split pos="right">
											<output> 2.0714285 </output>
										</split>
									</split>
									<split pos="right">
										<output> 1.2457143 </output>
									</split>
								</split>
								<split pos="right">
									<output> 2.1403508 </output>
								</split>
							</split>
						</split>
					</split>
					<split pos="right">
						<feature> 1 </feature>
						<threshold> 0.53333336 </threshold>
						<split pos="left">
							<feature> 62 </feature>
							<threshold> 0.9296875 </threshold>
							<split pos="left">
								<feature> 65 </feature>
								<threshold> 0.64453125 </threshold>
								<split pos="left">
									<feature> 40 </feature>
									<threshold> 0.8769573 </threshold>
									<split pos="left">
										<feature> 29 </feature>
										<threshold> 0.6015625 </threshold>
										<split pos="left">
											<feature> 22 </feature>
											<threshold> 0.9045888 </threshold>
											<split pos="left">
												<feature> 62 </feature>
												<threshold> 0.50390625 </threshold>
												<split pos="left">
													<feature> 58 </feature>
													<threshold> 0.7697369 </threshold>
													<split pos="left">
														<output> 2.9375 </output>
													</split>
													<split pos="right">
														<feature> 22 </feature>
														<threshold> 0.66794455 </threshold>
														<split pos="left">
															<output> 2.131579 </output>
														</split>
														<split pos="right">
															<feature> 27 </feature>
															<threshold> 0.79930997 </threshold>
															<split pos="left">
																<feature> 45 </feature>
																<threshold> 0.9551955 </threshold>
																<split pos="left">
																	<feature> 52 </feature>
																	<threshold> 0.008267007 </threshold>
																	<split pos="left">
																		<feature> 13 </feature>
																		<threshold> 3.1338137E-4 </threshold>
																		<split pos="left">
																			<output> 1.5305164 </output>
																		</split>
																		<split pos="right">
																			<output> 1.7280334 </output>
																		</split>
																	</split>
																	<split pos="right">
																		<output> 3.6666667 </output>
																	</split>
																</split>
																<split pos="right">
																	<output> 2.137931 </output>
																</split>
															</split>
															<split pos="right">
																<output> 3.0 </output>
															</split>
														</split>
													</split>
												</split>
												<split pos="right">
													<output> 1.4641833 </output>
												</split>
											</split>
											<split pos="right">
												<output> 2.2903225 </output>
											</split>
										</split>
										<split pos="right">
											<output> 2.6 </output>
										</split>
									</split>
									<split pos="right">
										<feature> 28 </feature>
										<threshold> 0.75715953 </threshold>
										<split pos="left">
											<feature> 37 </feature>
											<threshold> 0.13569294 </threshold>
											<split pos="left">
												<output> 5.0 </output>
											</split>
											<split pos="right">
												<feature> 57 </feature>
												<threshold> 0.98828125 </threshold>
												<split pos="left">
													<feature> 46 </feature>
													<threshold> 0.029055854 </threshold>
													<split pos="left">
														<output> 1.6812227 </output>
													</split>
													<split pos="right">
														<output> 2.35 </output>
													</split>
												</split>
												<split pos="right">
													<output> 4.0 </output>
												</split>
											</split>
										</split>
										<split pos="right">
											<output> 5.25 </output>
										</split>
									</split>
								</split>
								<split pos="right">
									<feature> 4 </feature>
									<threshold> 0.40203562 </threshold>
									<split pos="left">
										<feature> 15 </feature>
										<threshold> 0.0 </threshold>
										<split pos="left">
											<output> 0.0 </output>
										</split>
										<split pos="right">
											<feature> 36 </feature>
											<threshold> 0.17398758 </threshold>
											<split pos="left">
												<feature> 52 </feature>
												<threshold> 0.008267007 </threshold>
												<split pos="left">
													<feature> 63 </feature>
													<threshold> 0.011718856 </threshold>
													<split pos="left">
														<feature> 43 </feature>
														<threshold> 0.20090182 </threshold>
														<split pos="left">
															<output> 1.7471265 </output>
														</split>
														<split pos="right">
															<output> 2.2643678 </output>
														</split>
													</split>
													<split pos="right">
														<output> 2.159091 </output>
													</split>
												</split>
												<split pos="right">
													<output> 3.75 </output>
												</split>
											</split>
											<split pos="right">
												<output> 1.7883598 </output>
											</split>
										</split>
									</split>
									<split pos="right">
										<output> 3.2 </output>
									</split>
								</split>
							</split>
							<split pos="right">
								<output> 1.1621622 </output>
							</split>
						</split>
						<split pos="right">
							<feature> 43 </feature>
							<threshold> 0.19771583 </threshold>
							<split pos="left">
								<feature> 42 </feature>
								<threshold> 0.031160433 </threshold>
								<split pos="left">
									<output> 1.7954545 </output>
								</split>
								<split pos="right">
									<feature> 61 </feature>
									<threshold> 0.027130296 </threshold>
									<split pos="left">
										<output> 3.631579 </output>
									</split>
									<split pos="right">
										<output> 8.625 </output>
									</split>
								</split>
							</split>
							<split pos="right">
								<output> 1.7924528 </output>
							</split>
						</split>
					</split>
				</split>
				<split pos="right">
					<feature> 20 </feature>
					<threshold> 0.8087572 </threshold>
					<split pos="left">
						<feature> 31 </feature>
						<threshold> 0.105468936 </threshold>
						<split pos="left">
							<feature> 18 </feature>
							<threshold> 0.3306104 </threshold>
							<split pos="left">
								<output> 5.0 </output>
							</split>
							<split pos="right">
								<feature> 13 </feature>
								<threshold> 0.0021936698 </threshold>
								<split pos="left">
									<output> 2.3707864 </output>
								</split>
								<split pos="right">
									<feature> 35 </feature>
									<threshold> 0.14768505 </threshold>
									<split pos="left">
										<feature> 42 </feature>
										<threshold> 0.026832595 </threshold>
										<split pos="left">
											<feature> 45 </feature>
											<threshold> 0.9419752 </threshold>
											<split pos="left">
												<output> 6.909091 </output>
											</split>
											<split pos="right">
												<output> 1.85 </output>
											</split>
										</split>
										<split pos="right">
											<feature> 52 </feature>
											<threshold> 0.008267007 </threshold>
											<split pos="left">
												<feature> 39 </feature>
												<threshold> 0.16939116 </threshold>
												<split pos="left">
													<output> 2.46875 </output>
												</split>
												<split pos="right">
													<feature> 30 </feature>
													<threshold> 0.3671875 </threshold>
													<split pos="left">
														<output> 3.2 </output>
													</split>
													<split pos="right">
														<feature> 58 </feature>
														<threshold> 0.79005444 </threshold>
														<split pos="left">
															<feature> 15 </feature>
															<threshold> 0.017591093 </threshold>
															<split pos="left">
																<feature> 68 </feature>
																<threshold> 0.01097901 </threshold>
																<split pos="left">
																	<output> 1.5586592 </output>
																</split>
																<split pos="right">
																	<output> 1.9262673 </output>
																</split>
															</split>
															<split pos="right">
																<output> 1.531915 </output>
															</split>
														</split>
														<split pos="right">
															<output> 1.3030303 </output>
														</split>
													</split>
												</split>
											</split>
											<split pos="right">
												<feature> 28 </feature>
												<threshold> 0.30805975 </threshold>
												<split pos="left">
													<output> 6.0 </output>
												</split>
												<split pos="right">
													<feature> 39 </feature>
													<threshold> 0.25793666 </threshold>
													<split pos="left">
														<feature> 14 </feature>
														<threshold> 0.047031242 </threshold>
														<split pos="left">
															<output> 3.5 </output>
														</split>
														<split pos="right">
															<feature> 48 </feature>
															<threshold> 0.0 </threshold>
															<split pos="left">
																<output> 3.125 </output>
															</split>
															<split pos="right">
																<feature> 41 </feature>
																<threshold> 0.30078125 </threshold>
																<split pos="left">
																	<output> 1.7284483 </output>
																</split>
																<split pos="right">
																	<output> 1.9344262 </output>
																</split>
															</split>
														</split>
													</split>
													<split pos="right">
														<output> 2.5306122 </output>
													</split>
												</split>
											</split>
										</split>
									</split>
									<split pos="right">
										<output> 2.2666667 </output>
									</split>
								</split>
							</split>
						</split>
						<split pos="right">
							<output> 1.15 </output>
						</split>
					</split>
					<split pos="right">
						<feature> 35 </feature>
						<threshold> 0.12922439 </threshold>
						<split pos="left">
							<feature> 65 </feature>
							<threshold> 0.70703125 </threshold>
							<split pos="left">
								<feature> 22 </feature>
								<threshold> 0.9465741 </threshold>
								<split pos="left">
									<feature> 35 </feature>
									<threshold> 0.11999407 </threshold>
									<split pos="left">
										<output> 1.3960396 </output>
									</split>
									<split pos="right">
										<output> 1.6872038 </output>
									</split>
								</split>
								<split pos="right">
									<output> 11.0 </output>
								</split>
							</split>
							<split pos="right">
								<feature> 30 </feature>
								<threshold> 0.58984375 </threshold>
								<split pos="left">
									<feature> 40 </feature>
									<threshold> 0.75637585 </threshold>
									<split pos="left">
										<feature> 6 </feature>
										<threshold> 0.15710723 </threshold>
										<split pos="left">
											<feature> 54 </feature>
											<threshold> 0.07813077 </threshold>
											<split pos="left">
												<feature> 32 </feature>
												<threshold> 0.17578125 </threshold>
												<split pos="left">
													<feature> 58 </feature>
													<threshold> 0.75619185 </threshold>
													<split pos="left">
														<feature> 56 </feature>
														<threshold> 0.2421875 </threshold>
														<split pos="left">
															<feature> 8 </feature>
															<threshold> 0.01953125 </threshold>
															<split pos="left">
																<output> 1.6136364 </output>
															</split>
															<split pos="right">
																<feature> 44 </feature>
																<threshold> 0.068110056 </threshold>
																<split pos="left">
																	<feature> 5 </feature>
																	<threshold> 0.1875 </threshold>
																	<split pos="left">
																		<output> 1.9846153 </output>
																	</split>
																	<split pos="right">
																		<output> 1.7835052 </output>
																	</split>
																</split>
																<split pos="right">
																	<output> 2.5882354 </output>
																</split>
															</split>
														</split>
														<split pos="right">
															<output> 2.586207 </output>
														</split>
													</split>
													<split pos="right">
														<output> 1.5050505 </output>
													</split>
												</split>
												<split pos="right">
													<output> 2.5333333 </output>
												</split>
											</split>
											<split pos="right">
												<output> 2.245614 </output>
											</split>
										</split>
										<split pos="right">
											<output> 1.2307693 </output>
										</split>
									</split>
									<split pos="right">
										<feature> 13 </feature>
										<threshold> 0.0018802884 </threshold>
										<split pos="left">
											<output> 5.0 </output>
										</split>
										<split pos="right">
											<feature> 41 </feature>
											<threshold> 0.265625 </threshold>
											<split pos="left">
												<output> 2.2916667 </output>
											</split>
											<split pos="right">
												<feature> 5 </feature>
												<threshold> 0.04296875 </threshold>
												<split pos="left">
													<output> 1.1896552 </output>
												</split>
												<split pos="right">
													<feature> 19 </feature>
													<threshold> 0.92578125 </threshold>
													<split pos="left">
														<output> 1.6031746 </output>
													</split>
													<split pos="right">
														<output> 1.8727273 </output>
													</split>
												</split>
											</split>
										</split>
									</split>
								</split>
								<split pos="right">
									<output> 2.65 </output>
								</split>
							</split>
						</split>
						<split pos="right">
							<feature> 25 </feature>
							<threshold> 0.5817945 </threshold>
							<split pos="left">
								<output> 2.7272727 </output>
							</split>
							<split pos="right">
								<feature> 36 </feature>
								<threshold> 0.17785397 </threshold>
								<split pos="left">
									<feature> 63 </feature>
									<threshold> 0.003906356 </threshold>
									<split pos="left">
										<output> 1.7101449 </output>
									</split>
									<split pos="right">
										<output> 3.4285715 </output>
									</split>
								</split>
								<split pos="right">
									<feature> 44 </feature>
									<threshold> 0.030809578 </threshold>
									<split pos="left">
										<output> 1.9375 </output>
									</split>
									<split pos="right">
										<feature> 26 </feature>
										<threshold> 0.859375 </threshold>
										<split pos="left">
											<output> 1.593496 </output>
										</split>
										<split pos="right">
											<feature> 45 </feature>
											<threshold> 0.9419752 </threshold>
											<split pos="left">
												<output> 1.3553598 </output>
											</split>
											<split pos="right">
												<feature> 44 </feature>
												<threshold> 0.046558667 </threshold>
												<split pos="left">
													<output> 1.5410526 </output>
												</split>
												<split pos="right">
													<output> 2.35 </output>
												</split>
											</split>
										</split>
									</split>
								</split>
							</split>
						</split>
					</split>
				</split>
			</split>
		</split>
	</tree>
</ensemble>